-0.2589,-0.3666,0.1034,0.0277,0.3515,0.4967,-0.4611,0.0069,-0.0241,0.3816,0.3745,0.2580,-0.2599,0.1240,0.4268,0.3841,-0.2385,-0.2413,-0.0381,0.3516,-0.1011,0.3735,-0.3026,0.0552,-0.3049,0.3436,-0.3925,-0.0616,-0.3463,0.4753,-0.1505,-0.1376,-0.0632,0.3623,-0.0973,-0.2772,-0.2903,-0.0225,-0.3051,-0.2000,-0.4512,0.3960,0.4094,0.4679,-0.4599,0.2888,0.3270,-0.1834,-0.1454,0.2391,0.3484,0.3573,-0.2442,-0.4765,-0.2351,0.0326,0.2691,0.2304,0.1074,0.0087,-0.4844,0.3147,-0.0289,0.2981,0.2487,-0.4304,-0.0107,-0.0897,0.0648,0.1074,0.2328,0.1049,0.4588,-0.4049,-0.3344,0.4254,0.2373,0.0676,0.3313,0.0721,-0.2888,0.0338,0.3222,-0.4474,0.2107,0.3149,0.3619,0.0222,0.1367,0.4880,0.4035,-0.3015,0.3610,0.1532,-0.4501,-0.0659,0.1179,-0.0651,-0.1573,0.4548,0.2293,-0.2407,0.1250,0.1864,0.3335,0.2077,-0.2684,-0.3779,-0.2159,0.4127,-0.1869,-0.4327,0.1145,-0.2239,-0.3430,-0.3967,-0.0064,0.1525,-0.1941,0.0440,0.0355,0.0482,0.0095,0.0000,0.0891,-0.4436,-0.0301,0.0015,0.1502,-0.4972,-0.4512,-0.4000,0.3839,0.0118,0.3803,0.2588,0.1737,-0.0327,0.0273,-0.1491,-0.2480,-0.1693,0.4742,-0.2497,-0.1635,0.4595,0.4746,-0.3856,0.1529,0.4862
-0.4922,-0.2444,0.4450,-0.0535,-0.4814,-0.0831,-0.2754,-0.1837,0.2190,0.2378,0.1475,0.0871,-0.0167,-0.2572,0.3312,-0.1632,0.2695,-0.2662,0.3927,-0.0513,-0.0056,-0.1398,-0.0602,-0.2304,-0.2302,0.3880,-0.0190,-0.2845,-0.3334,-0.1388,0.0518,0.0216,0.3954,-0.0787,-0.1202,-0.2600,-0.1952,-0.3644,0.0674,-0.3316,0.4045,-0.0930,0.1496,0.2466,-0.4200,-0.1981,-0.3190,-0.2445,-0.2338,0.4801,-0.0088,-0.3299,0.0706,-0.4451,0.2886,0.3081,0.1183,0.3418,0.4078,-0.0591,-0.4220,0.0681,0.2029,0.3345,-0.0303,-0.1747,-0.3650,0.3217,-0.0815,-0.2059,-0.2843,-0.3367,-0.4387,-0.3208,0.4002,-0.2577,0.2838,-0.3861,0.1445,0.3267,-0.0901,-0.1099,0.0287,0.4712,0.1329,0.0903,0.3716,-0.3785,-0.4704,0.1517,0.1320,0.0439,0.1123,-0.2973,-0.1911,-0.1358,-0.3325,-0.1288,-0.2295,0.4952,-0.4472,-0.4941,0.3951,0.4507,0.1331,-0.3636,-0.4867,0.1176,-0.4119,-0.4750,0.2511,0.4053,0.2528,0.2782,-0.1627,-0.4826,-0.4819,-0.1156,0.0010,0.4541,0.1336,0.2419,0.3834,0.2147,0.0344,0.4130,0.2740,-0.2033,0.2736,-0.0807,-0.2659,0.4201,-0.3887,-0.3332,-0.3549,0.0015,-0.4636,0.4300,0.2340,-0.3695,-0.1494,-0.1293,0.0756,-0.4576,-0.4027,-0.3394,-0.4323,-0.1062,0.4340,0.2392
0.1656,0.4691,0.3558,-0.0527,-0.0794,0.3688,0.2613,-0.4526,0.3059,0.3424,0.3565,0.0645,0.3005,0.3119,-0.4448,-0.0219,0.0930,-0.3021,0.0213,0.1072,-0.1526,-0.3223,-0.1637,-0.2303,-0.0364,-0.2081,-0.0306,-0.2287,-0.2730,-0.0899,0.1362,0.4451,0.1096,-0.1256,-0.0355,-0.1482,0.1224,-0.3164,0.3548,0.3030,-0.4439,0.1413,-0.2199,-0.2805,-0.2362,0.2204,0.2517,-0.1169,0.1346,0.0645,0.0445,0.2423,-0.0762,-0.1692,-0.3562,-0.0505,-0.0955,-0.0451,-0.0145,-0.2028,0.1168,-0.3127,0.0635,0.3181,0.4957,0.0127,-0.3893,0.3058,-0.4533,0.3926,-0.1009,0.4588,-0.2879,0.2385,-0.0229,0.1046,-0.3028,0.2004,0.0214,-0.0853,-0.0723,0.2972,-0.4929,-0.2840,0.0665,0.3745,0.4345,0.1123,-0.2076,-0.3931,0.0267,0.1434,-0.2937,0.2862,0.3497,0.0990,0.0710,0.3324,-0.0953,0.4636,-0.3398,-0.0065,-0.1280,-0.1853,0.2872,-0.4472,0.1693,-0.4550,0.2618,0.2062,0.0045,0.3048,0.3201,0.4623,0.4705,-0.4927,0.2959,0.4027,0.3809,0.3078,0.3350,-0.3103,0.1285,0.4926,0.4004,-0.1308,-0.3490,0.2673,0.4575,0.4133,-0.2863,-0.2124,0.2640,0.1220,-0.2114,-0.3170,0.4049,-0.3626,0.4848,-0.1611,-0.0570,0.3874,0.3421,-0.1822,-0.1276,0.1396,0.3167,0.0110,-0.0753,0.3237
0.2596,-0.0785,-0.3748,0.3479,0.2449,0.1711,0.4424,-0.0081,0.0938,0.2047,-0.2860,0.4540,-0.2399,-0.3986,-0.0927,-0.0648,0.0576,0.4898,-0.1551,0.2755,-0.2729,-0.1446,-0.1900,0.4310,-0.3194,0.0290,-0.4179,0.4051,0.1574,-0.1091,-0.3902,0.4081,0.0990,0.2524,-0.0988,0.1443,-0.1661,0.4899,0.2369,-0.4812,0.2731,0.2247,-0.2326,0.3601,-0.2439,0.2448,0.2503,-0.0669,0.1201,-0.2383,0.4936,-0.0069,-0.4259,0.3453,0.2680,0.4785,0.1452,0.3096,0.1051,-0.0511,0.2799,0.4446,-0.0676,-0.0201,0.0350,-0.3778,0.2999,0.2931,0.4150,-0.0269,-0.2865,-0.4996,-0.0969,-0.1718,0.1724,0.0900,0.3478,0.0782,0.4076,-0.2363,-0.1125,0.3621,-0.0972,0.3509,-0.4075,0.3527,-0.2623,0.0464,0.3148,-0.4853,0.3024,-0.3512,-0.4591,-0.0218,0.3926,0.3749,-0.0436,0.3065,0.1716,0.3043,-0.4374,0.0804,-0.4585,0.2660,-0.2740,0.0349,-0.3430,0.4966,-0.0207,-0.1670,0.3737,-0.1705,-0.3323,-0.1101,0.0535,-0.4208,-0.1302,0.4640,-0.1128,-0.4501,0.4903,-0.3263,0.1041,-0.3253,-0.1447,0.1236,0.4318,-0.3636,-0.2691,-0.4996,-0.0625,-0.1648,-0.1206,-0.2683,-0.4593,0.0780,0.3503,-0.1403,0.0102,0.0824,0.3239,0.2924,-0.4819,0.0579,-0.3282,-0.2837,0.3150,-0.4292,-0.1771,0.0665
-0.2072,-0.3492,0.0220,-0.4460,0.4414,-0.3396,-0.0143,-0.3361,0.1759,0.4699,-0.0641,-0.0117,-0.0200,-0.3977,0.3411,-0.4716,-0.1476,-0.1801,0.2629,0.0247,-0.2926,-0.4179,0.0143,-0.3312,-0.4087,-0.3097,-0.3655,-0.2199,-0.3673,0.4951,0.1227,-0.3055,0.0646,0.4595,0.3128,0.4341,-0.3829,-0.1569,0.2958,0.2757,0.2437,-0.1134,-0.4285,0.2399,-0.0978,-0.4151,0.1804,0.1247,0.1597,-0.1993,-0.4225,-0.0236,0.3942,0.3650,-0.3006,0.2689,0.3261,0.4121,0.0601,0.3705,-0.0649,0.0385,-0.4370,0.4641,0.4782,0.1474,-0.4347,-0.3410,0.4262,-0.2068,-0.0969,-0.2246,-0.0420,-0.4895,-0.2004,0.3501,0.1682,-0.1872,-0.0373,-0.1470,-0.2796,0.1881,-0.4849,0.2585,0.4623,-0.4207,-0.0803,-0.0066,-0.1336,0.4590,-0.3891,0.3300,-0.3459,-0.2695,-0.2563,0.1160,-0.4421,0.2890,0.1889,0.1903,-0.2894,0.3636,0.4045,0.0902,0.2429,-0.1193,0.0373,-0.2684,-0.1215,0.0105,0.3693,0.3480,-0.2733,0.1526,0.1443,-0.3580,-0.4899,0.0710,-0.4822,0.4756,0.1764,0.1982,-0.1103,0.2342,-0.1668,-0.0231,0.0147,-0.3470,0.3797,-0.3888,0.4151,0.4971,-0.0711,0.1892,-0.3875,0.1853,0.0433,0.1085,-0.1356,0.0202,0.0430,0.4169,0.4403,-0.0165,-0.0067,0.3650,-0.0058,0.1412,0.3716,-0.1396
-0.4343,-0.1113,-0.4493,-0.3619,0.3370,-0.1375,-0.4327,-0.0890,-0.2875,0.3013,0.1434,0.2829,-0.0524,0.1091,0.3239,-0.3530,-0.3219,0.3444,0.2440,-0.1783,0.4690,-0.4483,-0.3832,0.3797,-0.2416,0.2240,-0.4091,0.2041,-0.1260,-0.4909,0.1031,0.0262,-0.1010,0.0791,0.0431,0.2276,-0.4654,-0.1035,0.2738,0.0887,-0.1129,-0.3432,-0.2148,-0.0511,-0.3972,-0.3910,0.3349,0.1972,-0.4481,0.0285,-0.2931,-0.3721,0.3122,0.3285,-0.3776,0.3698,0.4364,0.3492,0.3965,0.3804,0.1548,-0.1843,-0.2681,0.3317,0.2409,-0.4542,-0.3652,0.2889,-0.2136,-0.2122,0.3450,-0.0395,0.0768,-0.1313,0.2507,-0.1204,0.2638,0.4641,0.4830,0.3627,0.2363,0.4903,-0.1234,0.3273,-0.0290,-0.3156,-0.4224,-0.2055,-0.0324,0.2899,-0.0206,0.4243,-0.1718,0.2341,0.4521,-0.4605,0.2461,-0.1287,0.3383,0.1024,-0.0336,-0.3153,-0.4056,0.3569,-0.1220,0.0363,0.4048,-0.1141,0.3274,-0.2622,0.3215,-0.0334,0.4058,0.4894,0.0044,-0.4251,0.4159,0.1507,-0.3250,0.4289,0.1739,-0.1449,-0.0552,-0.3798,-0.2568,-0.3830,-0.1822,0.3312,0.3431,0.1703,-0.1358,-0.0637,-0.1716,0.3806,-0.1602,-0.3660,0.2525,0.4992,0.4390,0.0685,-0.1293,0.2185,-0.1580,0.3686,0.1578,0.0140,-0.2173,0.2611,0.0258,0.0250
-0.4422,0.0133,-0.1347,-0.1723,-0.4387,-0.2743,-0.0396,-0.2410,0.1664,0.2820,0.2209,-0.3613,0.0369,-0.0828,-0.0053,0.3610,-0.1742,-0.4156,-0.2416,0.2979,0.0792,-0.2480,-0.3072,0.4909,-0.1746,-0.0786,0.0299,0.1932,0.1831,-0.4095,0.4313,0.4500,-0.4092,0.2678,-0.2148,-0.1892,0.0240,-0.0362,-0.0621,-0.1532,0.3513,0.0970,-0.1773,0.4797,0.1426,0.3243,-0.3576,0.0178,-0.1938,0.2959,-0.1540,-0.1892,-0.4546,-0.2218,-0.4002,-0.1332,0.4183,-0.3419,0.2010,0.3270,-0.0726,0.2611,-0.1187,0.1345,0.3435,-0.2010,-0.4432,-0.2621,-0.3875,0.1770,-0.0744,-0.4984,0.4915,0.0495,0.4239,-0.4392,-0.3496,-0.4466,-0.4004,-0.2238,0.1554,-0.1812,0.0824,-0.2549,0.4254,-0.1509,-0.0069,-0.0408,0.4136,-0.4913,0.3874,0.3311,-0.3357,-0.2990,-0.0974,0.1313,-0.3249,-0.1615,0.0366,0.1257,-0.2489,0.4522,0.0642,-0.3712,-0.2293,-0.4488,-0.0580,-0.4347,-0.3659,-0.1953,0.3294,-0.4986,0.0693,-0.0506,-0.4285,0.0894,0.2660,-0.3364,0.3107,0.3900,0.0439,0.1755,-0.4105,0.2565,0.2991,-0.1952,-0.4577,0.2989,0.1386,-0.3534,-0.1848,-0.2726,-0.4655,0.4773,0.0415,-0.3714,-0.1234,0.0734,0.3919,-0.4905,0.2329,-0.3307,0.1855,0.1741,-0.1079,0.0583,-0.3921,0.4284,-0.1606,0.1593
-0.0282,0.0077,-0.2749,-0.2310,-0.2800,0.2881,0.0330,-0.3233,0.2264,-0.3696,0.0573,-0.1463,-0.1824,0.0010,0.1643,-0.4451,-0.0584,-0.1776,-0.1557,-0.4846,0.0677,0.3791,0.2537,0.1098,0.1027,-0.4729,0.2643,0.4308,-0.3757,0.0487,0.2045,0.3390,0.1509,0.2308,0.1695,0.3735,0.0300,0.1463,-0.1151,0.3323,0.3088,0.3453,-0.2845,-0.1879,-0.0766,-0.3964,0.0842,0.3460,-0.2447,-0.3613,0.2217,0.1524,0.3078,0.1551,0.4313,-0.1420,-0.2535,0.2666,-0.0328,0.0588,-0.2855,0.1262,-0.3181,-0.0822,-0.0143,0.2739,-0.2884,0.1857,-0.1796,0.4159,-0.1346,0.3882,0.2893,0.2553,0.2485,0.3338,0.2769,-0.3484,-0.3919,0.1455,-0.4818,0.2885,0.0720,-0.1192,-0.0008,0.0023,-0.4665,-0.3453,-0.0418,0.4219,-0.1630,-0.2808,0.2270,-0.1183,-0.2408,-0.1937,-0.4676,0.1814,0.3041,0.4657,0.2847,0.2129,-0.4771,0.1858,0.4336,0.1177,0.4129,-0.1105,0.2064,0.2904,-0.3821,-0.3143,0.4450,-0.2810,0.4538,-0.2966,-0.1387,0.4034,0.3583,-0.3980,-0.4505,-0.2525,0.4261,0.1454,-0.4044,-0.2671,0.2204,0.2552,0.0780,0.3860,-0.2554,0.1266,-0.3753,-0.1855,-0.2962,-0.3849,-0.4695,-0.2108,-0.2581,-0.3148,0.0028,-0.3850,0.1967,-0.2183,0.3425,0.4073,-0.4979,0.3214,-0.0400,0.1143
0.3254,0.4160,0.2459,0.0807,0.1003,0.1205,-0.4965,-0.3370,-0.0145,0.2029,0.2272,0.1071,0.2608,-0.1133,-0.2298,0.1040,0.4967,-0.2059,-0.1503,0.0185,-0.4699,0.0801,-0.4526,-0.1220,0.3284,0.0665,0.1757,-0.0396,-0.3953,0.3269,0.0933,-0.0407,-0.1226,0.1008,0.2604,-0.0565,0.4792,0.2344,-0.4008,-0.1928,-0.4775,-0.1826,0.1311,-0.2643,-0.2877,-0.4688,-0.4591,0.4320,0.0351,-0.4743,-0.0225,0.4662,0.2924,-0.4090,0.0925,-0.1813,-0.3354,0.1982,-0.2147,-0.1422,-0.1290,0.2587,0.1978,0.0847,0.0227,-0.3269,0.1719,0.0118,0.2483,0.2852,0.3617,-0.1456,-0.3987,-0.1653,0.2774,-0.4064,0.0755,-0.3592,-0.4589,-0.3630,-0.0841,0.1083,0.0538,0.1749,-0.3215,-0.3661,-0.1689,0.3105,-0.1446,0.0309,-0.1593,-0.1292,0.4031,-0.4598,-0.0827,-0.4684,0.0049,0.4141,0.1378,-0.4534,0.0730,0.3002,-0.0715,-0.1045,-0.2283,-0.3347,0.3055,-0.3766,0.3806,0.2063,0.2138,-0.3521,-0.4714,0.0551,-0.0973,0.4471,0.0727,-0.0190,-0.4500,0.4768,0.3963,0.4499,0.1150,-0.3377,0.4187,0.3744,0.4518,-0.2615,0.1642,-0.0121,0.0831,-0.3598,-0.0563,-0.3800,0.1768,0.4035,0.2407,0.2737,-0.3439,-0.1785,-0.2869,0.3209,0.3024,0.1134,-0.3065,0.1704,-0.3237,-0.4957,0.4838,-0.2563
0.1677,-0.1599,-0.0946,0.0985,-0.2788,-0.1167,-0.2680,-0.3163,-0.2493,0.6602,0.1988,-0.2176,0.1449,0.2632,-0.1735,0.0075,0.5824,0.5882,-0.3847,0.6070,0.1754,0.7655,0.1626,0.0436,-0.0097,-0.3781,0.5136,0.4913,-0.1411,0.5798,-0.2077,0.3731,-0.2884,0.1491,0.3247,0.3187,0.6358,-0.1344,0.2428,0.0424,0.0196,0.4581,0.0339,-0.1928,-0.0790,0.4085,0.3590,-0.2999,0.3701,-0.0020,0.2688,0.7258,-0.0774,0.3697,0.0094,0.0119,0.1820,0.4731,-0.0746,0.7741,-0.1945,-0.1229,-0.3914,-0.2334,0.5727,0.0246,-0.2829,0.7134,-0.3644,0.3812,0.4076,-0.2729,0.4007,0.1413,0.3273,-0.4178,0.5198,-0.1392,-0.1762,0.0121,0.5421,-0.0604,0.1049,0.3578,0.4018,-0.3565,0.4215,-0.2068,-0.0654,-0.1901,0.6167,-0.4671,0.4658,-0.1140,0.5235,0.4839,-0.1916,-0.2103,0.0091,0.4199,0.2453,0.1191,0.0247,0.4834,0.3082,-0.1354,-0.0909,-0.4625,0.5300,0.5912,0.0022,0.0718,0.6466,0.4602,0.0694,0.5118,-0.1200,0.2385,-0.0060,0.2495,-0.1887,0.3242,-0.2365,0.1171,0.5942,0.1313,0.2904,0.0756,0.5062,0.3591,0.1898,-0.0577,-0.3419,0.1566,0.3198,0.6292,0.4629,0.3684,-0.1951,0.1439,-0.2719,0.0696,0.3263,-0.1771,0.2219,0.4637,0.6422,0.0027,0.7372,-0.2556
0.9422,0.2069,0.9595,0.4254,-0.4423,-0.0981,0.7736,-0.3391,0.1443,0.2588,-0.3242,-0.1082,0.7054,-0.0838,-0.0618,0.4618,0.3810,0.1990,-0.1093,0.6573,-0.1112,0.7674,0.0458,0.5381,0.0433,0.1488,0.3792,0.1167,0.0278,0.2229,0.7950,0.3695,-0.1267,-0.1069,0.4422,0.6415,0.9712,0.8565,0.1841,0.4926,0.5022,0.1548,0.7629,0.0437,0.3799,0.5378,0.1867,-0.0569,-0.4087,0.1115,0.3035,0.9126,0.6976,0.0428,0.6431,0.1061,0.5684,0.0653,0.6514,0.2171,0.1437,0.7398,0.5202,0.2027,0.2253,-0.4001,0.1593,0.1253,0.5258,0.2347,0.5613,0.5892,0.4425,0.2121,0.4086,0.2016,0.0920,0.5170,0.0809,-0.0020,-0.0305,-0.1497,0.9303,0.0498,0.5810,0.5684,0.1577,-0.1732,0.5125,0.5892,0.5572,0.4908,0.5467,-0.2956,0.0446,0.8822,0.3091,-0.0760,0.3710,0.4012,0.4838,-0.0472,-0.0671,0.9295,-0.0708,0.0224,0.1105,-0.3006,0.5537,0.5056,-0.0681,0.0853,0.0547,-0.1699,-0.1132,0.3734,0.4429,0.0548,0.9919,0.3981,-0.2303,0.6411,0.4472,-0.2042,0.4246,0.8877,0.1540,0.2636,0.5139,0.5128,0.3945,0.7995,0.3968,0.0119,0.2373,0.0595,0.3980,0.5302,0.5408,0.1018,0.5310,0.0954,0.0519,0.1514,0.4296,-0.1689,0.9755,0.2288,0.9622,-0.2365
-0.1909,-0.1803,0.1391,0.1644,-0.3082,0.0082,0.1933,-0.4854,0.1627,0.0296,0.4575,0.4755,-0.4191,-0.2288,-0.3840,-0.2463,-0.1624,0.4710,-0.3639,-0.3089,-0.2774,0.0426,0.5224,0.1493,-0.4437,-0.2400,0.4414,0.1001,-0.4591,-0.1155,0.4857,0.4082,-0.1721,0.0526,-0.4307,0.1578,0.2312,-0.2711,-0.0040,-0.2762,-0.2681,0.3861,-0.2814,-0.3169,0.2939,-0.1700,-0.3759,0.1332,0.0062,-0.1679,-0.2990,-0.1710,-0.2397,0.0449,-0.2374,0.2157,0.4190,0.2107,0.2421,-0.1818,-0.1379,0.4239,0.1754,0.2957,-0.1409,-0.0501,-0.3603,0.2711,0.4175,-0.2107,0.0292,-0.1142,-0.4244,-0.4555,-0.2688,-0.4587,-0.2455,0.1015,0.1884,-0.4893,-0.2745,0.3524,0.0236,0.1568,0.2941,-0.0783,-0.0214,-0.1591,0.1137,0.4300,0.1072,0.2257,0.0795,-0.1121,-0.1443,0.3950,0.1939,0.3062,0.0119,-0.2759,0.0807,-0.0316,0.3291,0.1361,-0.2699,-0.0216,-0.0640,0.2935,-0.1361,-0.2229,0.5209,0.3362,0.3756,0.3716,0.5318,-0.0487,-0.3472,0.1863,-0.3081,-0.0699,-0.1193,-0.0946,-0.1019,-0.1264,0.5269,0.3663,-0.4382,0.2216,0.4289,-0.0326,-0.0967,0.5083,0.2724,0.5386,-0.0076,0.2884,-0.0173,-0.2007,0.4316,-0.1965,0.1712,0.0940,0.5455,-0.0858,-0.2687,0.0745,0.4672,0.3464,-0.1102,0.5185
0.0286,-0.4594,0.3857,0.4740,0.0421,0.4201,0.0787,-0.2152,0.3073,0.1108,-0.0757,-0.4023,0.3764,0.2829,-0.1651,0.2510,0.2635,-0.1846,0.4879,0.0468,-0.3894,-0.2765,0.1179,-0.2617,-0.2839,0.3109,-0.0336,-0.3437,0.1960,0.3903,-0.4439,0.0822,0.4133,0.0073,-0.3638,-0.3061,-0.2666,0.1053,0.4267,0.1430,0.4280,-0.0077,-0.0838,0.1683,-0.4553,0.0646,-0.3343,0.4367,0.2545,-0.2090,0.3943,0.4504,0.1536,-0.4432,-0.4160,-0.2238,0.2569,-0.4727,0.1863,0.3057,-0.4248,-0.4396,0.4520,-0.2511,0.2222,-0.1099,-0.1366,-0.2083,-0.0570,0.0815,-0.3550,0.3331,0.0358,0.4927,-0.0670,-0.1393,0.1799,0.1468,0.1141,0.2830,-0.0280,-0.3826,0.2761,-0.0011,0.1895,0.4377,0.0793,-0.2036,-0.1511,-0.2315,0.0114,-0.3104,-0.2303,-0.4396,-0.0634,-0.4983,0.3183,-0.0754,-0.3863,0.4851,0.4786,-0.3222,-0.4672,-0.1186,0.1565,0.0045,0.3134,-0.4815,-0.2077,-0.3763,-0.3262,0.3585,0.0724,0.2296,-0.1877,-0.3622,-0.3116,0.2509,0.0713,0.0721,-0.4197,-0.2194,-0.3623,-0.1492,0.2499,0.0472,-0.3587,-0.1708,0.2756,-0.4286,0.3185,0.4373,-0.0179,-0.2946,0.4717,0.3259,-0.3460,0.1675,-0.1830,0.2826,-0.1595,0.0142,-0.3570,-0.1339,-0.2831,-0.2081,-0.2370,-0.1080,-0.4179,-0.4729
0.3860,0.1129,-0.1434,0.1732,0.3642,-0.0037,0.1918,-0.0786,-0.2606,0.4082,-0.0154,0.3415,-0.0360,0.1163,-0.4239,-0.4102,0.2212,0.2415,-0.2963,0.0802,-0.2707,0.0158,-0.4460,-0.0985,0.1829,-0.3989,-0.2759,-0.4522,-0.3295,-0.1135,0.3379,-0.2825,-0.2506,0.4869,0.2793,0.1595,0.4288,0.3719,0.2966,0.2310,0.0387,0.0741,-0.4338,0.4150,0.4885,-0.1189,-0.4601,0.4598,0.2095,0.0379,0.2329,-0.3733,0.0336,0.4855,0.2934,-0.2279,0.1442,-0.0834,0.4354,0.2188,0.1693,0.0003,0.4928,-0.4542,-0.0491,-0.1321,-0.3861,-0.3993,0.1148,0.3962,0.2004,0.3549,0.3627,-0.4733,-0.2962,-0.4991,0.4917,0.3642,0.2464,0.0661,0.2356,-0.2736,0.2856,0.2149,0.1767,-0.1233,-0.0719,-0.0716,-0.3581,-0.0675,-0.4645,-0.3373,-0.1093,0.2876,0.1419,-0.3113,-0.4713,-0.4113,-0.3410,0.4215,-0.3271,-0.4969,0.3048,0.3692,0.1886,0.4285,-0.1092,-0.3456,0.4664,-0.1855,0.1780,-0.0433,0.1465,-0.0978,-0.1059,0.3841,0.3281,0.3266,-0.2927,-0.3734,0.3509,0.4704,0.1109,0.4647,-0.4483,-0.1613,-0.0726,0.3647,0.0767,0.0848,0.2186,0.2202,-0.1682,0.0292,-0.0426,0.4925,0.0117,0.2879,-0.2907,-0.3398,0.4478,0.4110,-0.1286,-0.2514,0.3021,0.2372,0.1958,-0.4037,-0.1030,-0.3460
-0.4220,-0.0578,-0.2347,-0.4659,0.4054,-0.0305,-0.0426,-0.4292,0.0363,-0.2339,0.4062,-0.2366,0.4743,0.1020,-0.0643,-0.0640,-0.0695,0.3292,-0.2411,0.4031,0.0715,-0.4198,0.2514,-0.3523,0.4230,0.1700,-0.3166,0.1149,-0.0722,0.4951,-0.1001,-0.2954,0.4154,0.4965,0.0048,0.1113,0.4792,0.3599,0.4883,0.0622,0.4123,0.1215,-0.1993,0.0723,0.1398,0.3323,-0.3986,-0.4997,-0.2947,0.1246,0.2790,-0.2751,-0.4403,-0.3977,0.0293,0.4135,0.4625,0.0133,-0.1001,0.4720,0.0487,0.2907,-0.4742,-0.3302,0.4449,-0.1418,0.4592,0.4806,-0.0613,0.3912,-0.0476,-0.0035,0.1038,0.2024,-0.2136,0.4041,-0.0120,0.1926,-0.3500,-0.4253,-0.1858,-0.3588,-0.2648,-0.1449,-0.2222,-0.3729,-0.1123,0.4749,-0.1165,0.1165,0.4104,0.1539,-0.2360,0.3220,-0.1009,0.3559,0.2087,-0.4199,-0.2274,-0.3449,-0.1026,-0.3209,0.4435,-0.3011,-0.2226,-0.3399,0.1358,-0.0962,-0.2684,-0.0151,0.2174,-0.4873,0.0722,-0.3633,0.3097,-0.0186,-0.3787,0.4463,-0.1379,-0.0284,0.1402,0.2942,-0.1051,-0.3615,-0.4715,-0.1884,-0.0086,-0.1649,-0.0239,-0.1262,-0.0260,-0.4499,0.3119,0.4323,-0.1956,0.2277,0.3633,0.1534,-0.3030,-0.2225,0.3133,0.2650,-0.4912,0.3066,0.3653,-0.4674,-0.0642,0.3798,0.2543,-0.4648
-0.2686,-0.4433,-0.0093,-0.1378,-0.1693,-0.1298,0.3203,0.3517,0.4290,-0.1906,-0.0346,-0.1840,0.2738,0.3180,0.2177,0.4703,0.1279,0.1199,0.0149,0.4762,0.3631,-0.1924,-0.1836,0.4846,0.3152,-0.0589,-0.2854,-0.0335,0.2166,-0.2459,0.4894,-0.2840,-0.1193,-0.1430,0.2073,-0.4199,0.2490,0.3345,-0.0282,0.2810,0.3264,0.1083,-0.4755,-0.3603,0.2817,0.3763,-0.4012,0.1235,-0.0621,0.0774,-0.2418,-0.3985,0.2807,-0.1683,0.1191,0.4532,0.4050,0.3842,0.4296,-0.4600,0.0787,0.2348,-0.0214,0.4715,-0.0330,-0.3470,-0.2968,-0.4164,0.1063,-0.4154,0.2658,0.3806,-0.4330,0.4121,0.1871,0.3866,-0.0601,-0.1432,-0.3288,-0.3350,-0.1312,-0.4428,-0.1760,0.0922,-0.4362,-0.0069,0.0618,-0.2539,0.1387,-0.1084,-0.2083,0.2125,0.0218,-0.1378,-0.3913,-0.0723,-0.1535,-0.2014,-0.0522,-0.2014,-0.2730,-0.4034,-0.2214,-0.0508,0.1173,0.3195,-0.3304,0.4278,-0.3843,-0.4427,0.4402,0.0131,-0.2521,-0.0606,-0.0973,-0.1773,0.2031,-0.4467,-0.4154,-0.4177,-0.0048,-0.3673,-0.2945,-0.4203,-0.1939,0.2352,-0.4239,-0.3630,0.2532,-0.4866,0.0582,0.4724,0.2252,-0.0873,-0.3690,0.4657,0.2046,-0.4825,-0.0222,0.0329,0.2674,0.3262,-0.0741,-0.1020,-0.1450,-0.0785,0.0113,-0.0666,-0.0605,-0.4420
-0.2755,0.1008,-0.2740,0.1188,0.1246,-0.1748,-0.0656,-0.3318,0.0869,-0.0583,-0.3122,-0.3561,-0.2028,-0.2853,0.3572,-0.4299,-0.1326,0.1713,-0.3455,0.1765,-0.3379,-0.4641,-0.1302,0.2604,-0.0956,0.1987,-0.2876,0.3738,-0.2122,0.3991,0.3287,-0.4105,0.1566,-0.0135,-0.1870,-0.4553,-0.0537,-0.0260,0.2389,0.3643,0.0455,0.4629,-0.2053,0.1852,0.2567,-0.2551,-0.2998,-0.2641,-0.3474,-0.4478,0.2580,-0.0204,0.0041,0.4888,-0.4478,0.2302,-0.4999,-0.0997,-0.0052,-0.1474,-0.0672,0.3357,-0.2037,-0.2251,-0.1572,-0.2050,-0.3305,-0.1977,0.3482,-0.3591,0.1936,-0.0630,-0.4364,0.1771,-0.2726,-0.4901,-0.0422,0.3016,0.1177,-0.0259,-0.1892,0.0440,-0.1328,-0.3095,0.2099,-0.2113,0.2625,-0.4260,-0.3391,0.1867,-0.1127,0.4626,-0.2446,0.0487,0.0852,-0.3198,0.2795,-0.2452,-0.2769,-0.3993,0.1559,0.3339,0.2170,-0.0825,-0.0950,-0.1498,-0.4317,0.0841,-0.4545,-0.0117,0.4846,0.3496,0.4542,0.0690,-0.2872,-0.2693,0.2410,0.4768,0.2866,-0.4842,0.0249,0.2288,0.4812,-0.1069,-0.0291,-0.2109,-0.2325,-0.3858,0.2334,-0.2537,0.1516,-0.3868,-0.4654,0.1614,-0.0258,0.2744,0.4009,-0.0241,-0.3579,-0.2938,-0.0836,-0.2688,0.1141,0.3999,0.0879,0.2379,-0.1127,0.4656,-0.2412,0.1274
-0.0942,-0.0847,-0.1563,0.4976,0.0151,0.2088,0.0558,0.2361,0.4534,0.3325,-0.3141,-0.0882,0.0680,0.0889,-0.3769,-0.3844,-0.3977,0.1689,0.1550,-0.3333,0.0776,0.3460,0.1643,0.3851,0.0901,-0.1640,-0.4122,-0.0264,0.4835,-0.0690,-0.0694,-0.1761,0.3969,0.3706,0.0277,-0.4139,0.3407,0.3987,0.3674,0.2414,-0.0793,-0.3115,0.4434,-0.2978,0.2513,-0.2174,0.3833,-0.0798,-0.4210,0.0527,-0.1160,-0.0422,0.4602,0.1938,-0.0109,0.4296,0.2892,0.3683,-0.1858,-0.0565,0.4866,-0.2973,-0.2510,-0.0453,-0.0819,-0.4321,0.2293,0.3049,0.2036,-0.4367,-0.0662,0.4058,-0.0323,-0.1120,0.3269,-0.0270,0.0638,0.1358,0.3813,0.0711,0.0570,0.1171,0.4805,0.0591,-0.4787,-0.0719,0.3945,-0.2642,0.3024,-0.2249,-0.2828,-0.0265,-0.1999,-0.4994,0.3965,0.0991,0.0585,0.3247,0.3041,0.2527,-0.3419,-0.1700,-0.3905,0.4637,-0.4679,-0.4052,0.3286,-0.1773,0.1134,-0.2108,-0.0030,-0.2826,-0.0682,-0.0135,0.2882,-0.4350,0.3403,-0.1717,-0.0721,-0.2820,-0.2729,-0.0419,0.0489,-0.3704,0.1661,-0.3799,-0.0046,-0.3501,-0.0477,0.1036,-0.1314,-0.4166,0.4421,0.1981,-0.2711,-0.4610,-0.2760,-0.4169,-0.4805,-0.0497,0.3115,0.1083,-0.2712,-0.1159,-0.1243,0.0199,-0.1669,-0.0072,-0.4210,0.3974
0.2928,-0.4165,0.1575,0.0423,-0.1833,-0.4977,-0.1240,0.3157,-0.2958,-0.0809,0.3031,0.2256,0.3090,0.1819,0.4725,-0.3487,0.2856,0.2840,-0.4094,0.3190,-0.4109,0.4261,0.2760,0.4848,0.4391,0.2475,-0.4767,-0.1458,0.2564,-0.1743,0.2812,-0.2216,0.2379,0.2236,0.0293,-0.3714,-0.4677,-0.1423,0.2391,-0.1487,0.4901,-0.3565,0.2654,0.1112,-0.3939,-0.1195,0.0877,-0.1506,-0.2103,-0.0359,0.1738,0.4533,0.4242,-0.2717,0.3835,-0.4958,-0.3145,-0.0216,0.3859,-0.0784,-0.4765,0.0875,0.2546,-0.0186,-0.0376,-0.2872,-0.3259,0.1928,-0.4355,-0.1891,-0.3036,0.0397,0.1894,-0.1270,-0.1707,0.2761,0.0086,0.1427,-0.2707,-0.2879,-0.0984,-0.4067,0.4630,-0.1953,0.0904,-0.3862,0.2486,-0.4741,0.1173,-0.3894,0.0223,0.2343,-0.2228,-0.2090,0.2901,0.1097,-0.4629,0.1818,0.0203,-0.2508,0.0594,0.0005,0.1457,-0.0347,0.3213,0.2522,-0.3888,0.2033,0.3498,0.4006,0.2350,0.1645,-0.3428,0.1526,0.1797,-0.2833,0.3000,0.2743,-0.1403,-0.3409,0.1806,-0.2433,0.2689,-0.0200,-0.4593,0.4435,0.0076,0.2501,0.3442,0.1645,0.3459,-0.3706,0.4661,-0.2962,0.0239,0.2020,-0.1918,-0.4259,-0.2334,0.1693,0.2551,-0.4855,0.1125,0.2413,0.0467,0.3849,0.4213,-0.1513,0.1398,-0.0493
-0.0310,0.2347,0.4817,-0.3786,-0.4949,-0.2888,-0.0265,-0.4213,-0.1003,-0.0740,-0.4824,-0.3399,0.0620,0.0688,0.2952,-0.3116,-0.0969,-0.3319,0.2328,-0.1613,-0.2049,-0.2920,0.3455,0.3518,-0.3398,-0.0510,-0.3263,0.2505,-0.1647,0.4399,-0.0277,-0.1622,0.4408,-0.2810,-0.4786,-0.1350,0.3235,0.4200,0.4996,-0.4368,0.1517,-0.0048,-0.0673,-0.2335,-0.1567,0.0378,-0.1933,-0.1923,-0.3669,0.0344,-0.0427,0.4719,-0.4312,0.0791,0.0801,-0.1298,0.0974,0.4438,0.2567,0.2001,0.3808,-0.4816,-0.2963,0.3518,-0.0457,0.3106,0.1690,-0.1364,0.1956,0.3011,0.2383,-0.4417,-0.3162,0.2415,-0.0815,-0.2892,0.3255,0.1029,0.4781,0.1832,-0.2767,0.1844,-0.2942,-0.0545,0.1955,0.3857,0.2783,-0.2792,-0.1168,-0.4457,-0.0418,0.0354,0.3257,-0.0308,0.4875,0.1692,-0.2483,0.3432,-0.1443,0.4093,-0.4582,-0.1420,-0.1794,0.4811,0.2810,0.4488,0.2651,-0.2936,-0.2296,0.4590,0.3526,-0.2356,0.1758,-0.4673,0.0998,0.1860,-0.1542,-0.3273,0.2268,0.3420,-0.0428,-0.2805,-0.4765,0.2790,0.2769,0.0552,0.3641,0.1404,0.3700,-0.3566,0.4651,-0.3203,0.3723,-0.3974,0.4984,0.0019,0.2314,-0.2434,0.4974,0.4122,-0.4808,0.4985,-0.0435,0.1946,0.2489,-0.1741,0.4233,0.4484,-0.0623,-0.4883
0.4922,-0.1190,0.0432,0.0491,-0.4826,-0.2975,-0.0853,0.1550,-0.3427,-0.1111,-0.4973,0.1847,0.0864,-0.1470,0.0518,0.4514,-0.1397,0.3663,-0.3579,-0.4116,0.0548,-0.2018,0.4381,-0.0562,-0.0686,0.2388,-0.2248,0.4857,0.3690,0.0130,-0.1795,0.4182,-0.1962,0.1351,0.1150,0.2611,0.3164,-0.0140,0.3814,-0.0535,0.1144,0.1815,0.1234,-0.0021,-0.3220,-0.2938,-0.4295,-0.0726,-0.0250,-0.3785,-0.1743,0.4337,-0.1086,0.0703,0.3657,-0.4805,-0.0984,-0.3273,-0.0476,0.0134,0.1333,-0.1694,-0.2712,-0.0139,-0.0040,-0.1662,-0.0952,-0.2916,-0.0852,-0.2890,-0.3445,0.2307,0.2120,-0.3786,0.3451,0.0395,0.3954,-0.3107,0.0313,-0.1682,-0.0947,-0.1966,0.3527,0.4500,0.4256,-0.0784,-0.3208,0.0026,0.1766,-0.4432,0.1157,0.1348,-0.0689,0.1347,-0.2159,-0.4448,-0.1535,0.1766,-0.4575,0.3348,-0.2664,-0.1323,-0.0385,0.2918,-0.1138,0.0256,-0.4730,-0.1566,0.1011,-0.4694,0.2397,0.2449,-0.0884,0.0990,-0.2028,-0.3028,0.4911,-0.4717,0.4377,-0.1977,-0.4835,0.1889,0.4162,-0.1482,-0.2009,0.1064,-0.3457,-0.0890,0.1329,-0.1145,-0.2593,0.0492,0.4238,0.1728,-0.0209,-0.0598,0.4336,-0.1649,-0.0012,0.0349,0.2271,-0.0320,-0.4922,-0.2519,-0.0353,0.2046,0.2593,0.4411,0.3217,-0.2040
0.2263,0.1581,0.2085,-0.1929,0.2673,-0.1110,0.3945,0.1829,-0.0259,-0.1195,0.0877,0.1748,0.3390,-0.2528,0.3489,0.4812,0.2309,-0.3409,-0.2468,0.1920,-0.2857,-0.1375,-0.2342,-0.1689,0.1756,0.4431,-0.3306,0.4567,0.1875,0.0790,0.2751,-0.0133,0.1145,-0.2445,-0.1926,-0.2384,-0.3595,0.0964,-0.4712,-0.3643,-0.0652,-0.4450,0.1720,-0.2287,0.3466,-0.0072,-0.4594,0.3598,0.1083,0.1824,-0.3048,0.3758,-0.0767,-0.4822,-0.0434,0.4672,0.4475,0.3955,0.0232,0.4626,-0.0732,-0.4601,-0.0187,-0.0393,0.1535,-0.1429,0.4024,-0.3749,-0.1850,0.2623,-0.3380,-0.4927,0.3482,0.0160,-0.0028,-0.4981,-0.0226,0.2978,-0.2138,0.1500,-0.1193,-0.3304,0.1874,0.4435,-0.0766,-0.1935,-0.1731,0.3705,-0.1981,0.0159,-0.1641,0.0806,-0.3326,-0.2375,0.1476,-0.4100,0.2309,0.4822,-0.1622,-0.3380,0.0704,-0.0132,0.2963,0.2418,0.4470,-0.0121,-0.3793,0.0056,0.3191,-0.2574,0.3819,-0.4409,0.3408,-0.4746,0.0860,-0.0891,-0.2313,-0.2446,0.3601,-0.3316,0.2580,-0.0142,0.3495,-0.4609,-0.0795,0.3461,0.3063,0.2266,-0.0484,0.2632,0.1523,-0.2246,0.2049,-0.4373,-0.1963,0.0564,0.4939,0.1607,-0.0304,-0.0203,-0.1642,-0.3688,-0.1718,-0.3345,0.3171,0.1713,0.3984,-0.3063,-0.1450,0.1783
0.0266,0.3521,0.2053,-0.0809,-0.1696,0.4915,-0.0853,-0.4715,-0.2468,0.2775,-0.1302,-0.0510,0.4247,0.3235,-0.0580,0.4783,0.3863,-0.4345,0.1057,0.4065,0.0394,-0.4136,0.1231,0.2822,0.1477,-0.1381,0.4677,0.2222,-0.1002,-0.3222,0.3110,-0.3202,-0.0055,0.0836,-0.3290,-0.2712,-0.4626,0.0987,-0.1033,0.2918,-0.3840,-0.0346,0.0917,-0.3146,0.0501,0.1249,0.3646,0.3524,0.1756,-0.3998,-0.1047,0.0908,-0.3220,0.1264,0.3105,-0.4068,0.4106,0.0849,0.3900,-0.0016,-0.0488,-0.4789,-0.1901,-0.0507,-0.4047,-0.1084,-0.4471,-0.4599,0.2292,-0.3774,0.4389,-0.0706,0.0377,0.2343,-0.2099,-0.2245,-0.3854,-0.3669,-0.3986,0.1228,-0.1031,-0.2247,-0.3985,-0.3022,-0.2681,-0.2169,0.1235,-0.2775,0.3205,-0.2503,-0.4369,-0.0335,-0.3269,-0.0868,0.1815,-0.4473,-0.2397,0.2931,0.4544,-0.1963,0.3919,0.1909,0.3322,0.4492,-0.1693,-0.2001,-0.0039,-0.1286,0.1210,0.0616,0.0560,0.0728,-0.4270,0.3566,-0.3170,-0.4087,-0.1686,-0.1874,-0.0443,0.3222,-0.1146,0.2992,0.1083,0.2965,0.3787,-0.1899,-0.0362,0.2468,0.0466,0.3396,-0.1121,0.4359,-0.2053,-0.4949,0.4009,0.0144,-0.3045,0.4155,0.3867,0.0947,0.4234,-0.0935,0.3031,0.4678,0.2309,0.2506,-0.1483,0.1741,0.4157,-0.3024
0.2606,-0.1657,0.4009,-0.4222,0.3555,0.0623,0.4002,0.4840,0.1250,0.0452,-0.3369,-0.1114,0.2518,0.4523,-0.4135,0.3930,0.3369,0.0688,0.1332,0.4909,0.1541,-0.2833,-0.4347,-0.4047,0.0669,0.1904,0.0556,0.2520,-0.3458,0.2703,0.3516,-0.2975,-0.4871,-0.2123,-0.4175,0.0719,0.3081,-0.2900,0.3544,0.4321,0.0844,0.4023,-0.2154,0.4247,-0.1672,0.2150,0.4222,0.4436,0.1510,0.0190,0.0067,0.4815,0.4683,-0.1810,-0.4113,0.1930,0.3194,-0.0943,-0.0550,-0.0727,-0.0012,-0.3775,0.1062,0.3124,0.3790,-0.4895,-0.0740,0.4728,-0.2994,0.2202,-0.4115,0.3658,0.1225,-0.1910,0.4080,0.2508,-0.1241,-0.4038,0.0805,-0.1694,0.0168,0.2984,0.3359,0.2431,-0.3515,0.1276,-0.3060,0.3030,-0.3535,-0.0873,0.0332,-0.2193,0.1884,-0.1927,-0.4065,0.4840,0.2669,-0.0790,-0.4284,0.3121,-0.0535,0.1213,-0.3011,-0.3342,-0.1787,0.0532,-0.1747,0.4283,0.4292,-0.3719,0.0199,0.2707,0.0696,-0.2272,0.4771,-0.4863,-0.0897,0.1362,-0.1953,0.4781,0.0220,0.2115,-0.4204,0.3131,0.2775,-0.1369,-0.1799,0.3272,0.4070,0.0929,0.3977,-0.3441,-0.4009,-0.1496,0.0505,0.3791,0.1672,-0.3538,-0.0567,0.3446,-0.1419,0.2594,-0.2495,0.3888,0.0520,0.0562,-0.1929,0.3571,0.4559,0.3378
0.1036,-0.4467,-0.2113,-0.1887,-0.0089,0.4705,-0.3601,0.0251,-0.2684,-0.1775,0.1950,-0.1089,-0.4409,-0.3472,0.4288,0.2737,0.0341,0.2481,0.4867,-0.4267,-0.4391,-0.3857,-0.4134,-0.1159,0.0496,0.2824,0.2681,0.2768,0.1896,0.0111,-0.0403,-0.2656,0.0767,0.4097,0.0073,-0.0662,0.2243,-0.2298,0.4583,-0.3230,0.1076,-0.0916,-0.3299,0.0815,0.2003,-0.4560,-0.3505,-0.0658,-0.1503,-0.2731,-0.2435,-0.0999,-0.3232,0.2481,0.3380,-0.1376,0.2829,0.4369,-0.1456,-0.0274,0.3886,0.2153,0.1962,-0.4725,0.2175,0.1184,-0.0125,0.3538,0.4642,0.2376,-0.2264,0.2901,-0.2464,-0.1922,0.0215,0.1994,-0.3008,-0.0800,-0.1573,0.1570,0.1283,0.4155,-0.2101,0.1451,-0.0223,-0.1282,0.4414,-0.4268,0.2417,0.2056,-0.0013,0.3497,0.0127,0.4119,0.2668,-0.4911,-0.4613,0.1468,-0.1293,-0.4004,-0.2288,-0.1094,0.4163,0.1907,-0.4641,0.4185,-0.4179,-0.2756,-0.1786,-0.1051,0.0780,0.3647,0.1610,0.2461,0.3246,-0.1725,0.0818,0.2054,-0.3242,0.1235,-0.4569,-0.0097,0.4885,0.4244,0.3458,0.3983,0.1919,0.4468,-0.0839,-0.2335,-0.2390,-0.1277,-0.1814,0.0830,0.4974,0.3586,-0.2582,0.0844,0.3687,0.1415,-0.1052,-0.3039,0.3498,0.1909,0.4133,-0.1830,0.2174,-0.0021,0.4016,-0.0087
-0.0242,0.3692,0.1559,0.1165,-0.0178,0.0610,0.3281,-0.0983,-0.2192,-0.0918,-0.2644,-0.0503,-0.2304,0.0402,0.1513,-0.4675,0.4165,-0.0462,0.1600,0.3506,0.2785,0.3447,0.4795,0.3254,0.0739,-0.2933,0.1208,-0.1131,-0.3191,-0.4836,-0.1618,-0.2360,0.0978,0.2474,0.0060,0.0055,-0.2360,0.4987,-0.0996,-0.1906,-0.2087,0.1773,-0.1442,-0.1529,-0.0043,0.2414,0.2262,0.2373,0.4549,-0.0394,0.1522,-0.2782,0.4370,0.2402,0.3081,-0.0476,-0.3494,-0.2751,0.3869,-0.1745,0.1399,0.4292,-0.1099,-0.4437,-0.2014,0.1854,0.0904,0.4116,0.1390,-0.0305,0.1554,-0.0002,-0.1567,0.1127,0.0595,0.3636,-0.1822,-0.0288,0.1281,0.4345,0.3346,0.1825,0.3163,0.1683,0.0152,-0.3180,-0.1664,0.0857,-0.2729,0.4397,0.4827,0.1079,-0.2625,0.2405,0.2261,0.0646,-0.4935,0.2272,-0.0863,0.0845,-0.0229,-0.1737,0.1000,0.0154,0.1058,-0.2995,-0.3030,-0.3197,-0.1011,-0.3059,0.2363,0.0639,0.4673,0.1192,0.0884,-0.2507,-0.2055,-0.3272,0.1578,0.1195,-0.1199,0.0304,-0.4473,-0.4139,0.2727,-0.3663,0.3906,0.3885,-0.2364,0.1035,0.3699,0.0148,0.1515,0.0188,0.4295,0.1127,0.0404,-0.0883,-0.0196,0.4007,0.2634,0.1205,-0.2603,-0.1268,0.1517,0.1307,-0.3259,-0.1597,-0.3167,0.3893
-0.2086,0.0527,-0.1673,-0.3425,-0.0058,0.2411,0.2041,0.3478,0.4639,0.4904,-0.1841,0.0822,-0.0557,0.1062,-0.2027,0.0287,-0.1878,-0.3427,-0.1595,-0.0967,-0.2617,-0.3855,-0.4613,-0.4069,-0.2403,0.3858,0.4317,0.0952,0.2694,-0.3182,0.1238,-0.4531,0.4042,-0.0212,-0.1201,0.4482,0.4351,-0.1064,-0.3443,-0.4996,0.0575,-0.1667,-0.2396,0.1947,-0.2911,0.0840,0.0569,0.4950,0.4914,-0.1947,-0.1668,0.2459,-0.4931,0.0663,0.1798,-0.0316,0.1931,-0.3397,0.0452,0.3922,0.2595,-0.0032,0.4744,0.1016,-0.2293,0.1937,0.4921,-0.3170,0.3702,0.0987,0.4382,0.0696,-0.3782,0.4603,-0.2402,-0.2202,-0.4058,0.3128,-0.0170,-0.4761,0.1865,0.3761,-0.4968,0.0330,0.4018,-0.0905,0.1804,0.2480,-0.4475,0.3869,-0.2669,-0.4021,0.2754,0.4617,-0.3828,-0.2711,-0.0821,-0.3142,-0.2595,-0.1018,0.0761,-0.4222,-0.4189,-0.1757,0.4556,-0.3524,-0.1043,-0.4514,-0.0879,-0.2724,-0.1833,-0.0231,-0.2142,0.4976,0.2475,-0.1973,-0.0223,-0.2262,-0.3373,-0.4788,-0.1349,0.0935,0.1182,-0.1491,-0.3119,0.3093,-0.4903,0.3473,-0.2896,-0.2388,-0.3277,-0.2224,0.0564,0.1255,0.3938,0.3332,-0.0745,0.0867,0.0588,0.4098,0.4013,-0.2621,-0.3611,-0.1178,0.0066,-0.0257,-0.2190,-0.2271,0.1683,0.1487
-0.0809,0.2211,-0.2817,-0.4649,-0.4331,-0.4416,0.0040,-0.3000,-0.1408,0.4988,0.0369,0.3349,0.0945,0.1140,0.3655,0.1201,-0.0013,-0.3364,-0.2773,-0.3895,-0.1881,-0.0540,-0.2370,0.2755,0.1648,0.0127,0.3092,-0.2419,0.3577,-0.3097,0.4266,0.2365,0.3933,0.0092,0.4140,-0.4417,0.3551,0.2083,0.4292,-0.4852,-0.1454,0.4859,-0.4113,0.0371,-0.4392,0.0964,0.0895,0.1126,0.1503,-0.0915,-0.0152,0.0263,-0.0828,-0.1817,0.3567,0.0635,0.3998,0.4357,-0.1625,-0.3030,-0.1542,0.3992,-0.1488,0.1112,0.3500,-0.3430,-0.4644,0.0647,-0.0672,0.3906,0.1904,0.3445,0.3723,-0.4129,-0.0054,-0.3150,-0.1978,-0.3510,-0.0911,-0.3114,0.2709,-0.1382,-0.2620,-0.3031,0.0076,0.1795,-0.0223,-0.3132,-0.3370,-0.0667,0.1140,0.2823,0.0255,-0.3168,-0.1917,0.0571,-0.1719,-0.3893,-0.3743,-0.4537,-0.3092,0.1415,-0.3810,-0.4648,0.3686,-0.0232,-0.3189,0.4081,0.3353,0.2575,0.0520,0.0142,-0.4048,0.3448,-0.0168,-0.3927,0.4704,0.2855,0.2589,-0.1609,-0.4891,0.3782,-0.4743,-0.1090,0.2382,0.0162,0.1795,-0.3810,-0.0778,0.3589,0.0646,0.1408,-0.2388,-0.4860,0.3860,-0.1157,-0.0880,-0.4066,-0.3334,-0.0735,0.4330,-0.1678,-0.4557,-0.1131,0.1592,-0.0267,0.1847,0.3324,-0.2862,0.0309
-0.3682,0.3112,-0.1005,-0.2552,0.0655,-0.4002,-0.3270,0.0454,0.2217,-0.1489,0.0057,-0.0674,0.3652,-0.3388,-0.3074,0.1601,0.3202,-0.2771,-0.2949,-0.2229,-0.4987,0.4582,0.1363,0.1008,0.2779,-0.0899,0.0537,-0.2028,-0.0324,-0.0466,0.2546,-0.3279,0.1910,-0.1313,0.0557,0.3413,0.4489,0.1035,-0.4659,0.1681,-0.2061,-0.3841,0.2531,0.1483,-0.0373,0.1365,0.1888,0.1727,0.2377,-0.0606,0.2919,-0.4580,0.0444,0.0788,0.1624,-0.0664,-0.4429,-0.4778,-0.3282,0.2156,-0.4641,0.4259,-0.3508,-0.1104,-0.1422,0.0826,-0.3242,-0.4198,0.1608,-0.4438,-0.4076,-0.0616,0.1970,-0.3447,-0.4999,0.1420,0.1392,-0.3890,-0.3535,0.3080,-0.0563,-0.4652,0.1371,-0.4570,-0.3130,-0.1449,0.0129,0.1431,-0.0921,-0.0338,-0.4331,0.4662,0.3593,0.4408,-0.1909,-0.1677,0.3417,0.1806,0.0397,-0.0895,-0.1592,-0.4609,0.1361,-0.2730,0.4660,0.4902,-0.1495,0.1125,-0.2232,0.1077,-0.3208,-0.3571,0.4377,0.1571,0.1603,-0.2140,-0.4185,0.3396,0.4366,-0.0387,-0.0993,-0.1414,-0.1469,-0.1767,-0.3354,0.3350,-0.3782,-0.3404,0.4571,0.2616,-0.4606,0.0247,0.1480,-0.2136,0.0239,0.1919,0.2842,-0.2262,0.1591,-0.1681,0.4475,0.3154,-0.2464,-0.4494,0.2156,0.4818,-0.4853,0.0881,0.0234,-0.2894
-0.4423,-0.1890,-0.4571,-0.4842,0.3504,0.0339,-0.4861,0.3267,0.2470,-0.0240,0.1482,-0.4190,0.0514,0.0230,-0.2173,-0.3789,-0.3636,0.1055,-0.1928,0.4585,0.2827,-0.2126,0.0474,0.2391,0.4180,0.3638,-0.1519,0.2780,0.0639,-0.1304,0.0635,0.0467,0.1266,-0.0547,-0.4372,-0.3949,0.2294,0.0224,-0.3142,-0.3464,0.2469,-0.2442,-0.0691,-0.0357,-0.0212,-0.3348,0.3312,0.3569,0.2425,-0.1597,-0.2221,-0.2812,-0.3776,-0.4964,0.3225,0.1504,-0.0120,-0.2686,0.4866,-0.2563,0.3539,0.2396,-0.3992,0.3965,-0.2204,0.3871,0.2525,0.1871,0.3318,-0.0543,0.0348,-0.3079,0.3631,-0.3523,0.4053,-0.4286,0.2074,-0.0150,-0.3872,0.1231,0.4674,-0.1942,-0.3005,-0.1998,-0.1263,-0.4721,-0.2840,0.3487,0.4677,-0.2220,0.2545,-0.4117,-0.1482,0.1214,-0.2687,-0.2938,0.4936,0.2359,0.0901,-0.0832,0.3940,0.0771,-0.3960,-0.2137,0.2834,-0.3571,-0.4075,0.0718,-0.3499,-0.1379,0.0859,-0.0335,-0.4183,0.2466,0.0894,-0.1621,0.3184,0.3536,-0.2703,-0.2264,0.1554,0.2493,0.0444,0.1949,0.3189,0.3030,0.3291,0.4213,-0.3820,-0.2381,0.2912,-0.1976,-0.2183,-0.0232,-0.0355,0.4963,-0.2119,-0.4828,-0.4188,-0.4123,-0.2515,-0.2616,-0.0031,-0.3188,-0.4431,0.0587,-0.1372,0.0590,0.0724,0.0808
0.0750,-0.4970,0.4918,-0.1452,-0.0688,0.3067,0.4325,0.3951,0.1065,0.0730,-0.0212,-0.1602,-0.0793,0.3385,-0.3725,-0.2889,-0.2112,-0.0807,-0.4272,0.2544,-0.1593,-0.4654,-0.0703,-0.3330,0.3296,0.0096,0.1080,0.0080,0.1233,-0.2918,0.3505,0.1070,0.3997,0.0715,0.2786,0.0035,0.3322,-0.1938,-0.3063,-0.3888,0.3162,0.3221,-0.0634,-0.3554,0.2513,0.1608,-0.0616,0.0612,-0.0995,0.1520,0.2461,-0.1740,-0.2965,0.4147,0.4900,-0.4602,-0.4950,-0.2488,-0.0676,0.1750,0.4252,-0.0332,0.4830,0.1105,0.3629,-0.2963,0.2933,-0.3336,-0.4856,0.0167,-0.0962,0.3046,0.3587,-0.3770,0.1095,-0.2802,-0.2565,-0.1644,0.3780,0.3703,-0.2434,-0.2372,-0.3494,-0.4282,0.0634,-0.1362,-0.1988,-0.1143,-0.1615,0.3602,0.2684,0.0499,0.2092,0.1715,-0.2728,-0.2212,0.3755,-0.2205,0.2789,-0.0804,-0.2092,0.0408,0.1420,-0.4468,-0.0199,0.0998,-0.4194,0.1439,0.0426,-0.1579,-0.3091,0.3117,-0.0508,0.0603,0.1804,-0.0138,0.0346,0.0371,-0.1157,0.2807,-0.0191,-0.3757,-0.4165,0.2082,0.1262,0.4110,-0.1056,0.0044,-0.2165,0.4874,0.3123,-0.4719,-0.3604,0.2752,-0.0298,0.3253,0.0235,0.3861,-0.3137,-0.4689,0.4512,0.2895,0.2956,0.2483,0.1914,0.0435,-0.4112,-0.2852,0.0488,0.0571
0.2952,0.4796,-0.4999,-0.1781,-0.2951,0.1372,-0.2711,0.4880,-0.2981,-0.3767,-0.0827,-0.3614,0.4812,-0.3562,0.0738,0.2283,0.0048,-0.4586,0.4468,-0.0342,0.2373,0.3507,-0.4033,-0.1365,-0.1485,0.0183,-0.1535,-0.4652,0.0323,0.1607,-0.3215,-0.0789,-0.0250,0.3616,-0.0635,0.0104,0.3538,0.2064,0.4590,-0.3347,-0.0984,-0.3939,0.0978,0.2686,-0.4955,-0.3197,-0.3137,0.0948,-0.3244,0.4807,0.1029,0.3844,-0.3993,-0.0100,0.1919,0.0973,0.4035,-0.2430,0.0353,-0.1064,0.1318,0.4894,-0.0829,0.3899,-0.1105,0.0531,0.4353,0.4385,-0.1138,-0.4285,0.1472,-0.0611,0.4790,-0.3705,-0.2260,-0.4681,0.3301,0.4328,0.3696,-0.3481,0.0205,0.0795,0.4760,-0.0652,0.4172,0.3861,0.3246,0.2086,0.4034,0.1353,0.1944,0.1268,0.4293,-0.4145,0.1882,-0.2525,0.3275,0.3282,0.4929,0.2260,0.0369,0.0425,0.4247,0.2767,0.0631,-0.2379,0.3450,0.1467,-0.4669,0.4182,0.3319,0.2559,0.0893,0.4311,0.1089,0.0073,-0.2810,-0.3886,0.2433,-0.4185,0.1761,-0.2441,-0.4568,0.4391,-0.0603,0.1790,0.1979,0.1505,-0.3450,0.0138,0.0139,0.0837,0.1560,0.2730,-0.2021,0.2019,-0.0978,-0.4815,-0.0370,0.0350,-0.2064,-0.1774,-0.2003,0.3254,-0.2572,0.3935,-0.4687,-0.0389,-0.1777,0.3746
-0.0260,0.0734,0.0445,0.2637,-0.3769,0.3977,-0.1750,-0.0040,-0.3522,-0.0653,-0.1040,-0.1505,-0.1973,-0.2090,0.4251,0.4130,0.4575,0.4130,-0.2884,0.0165,0.0634,0.4508,-0.1105,-0.1346,-0.3706,0.1740,0.4094,0.4503,-0.4098,-0.0473,0.0849,-0.1412,-0.0062,0.2909,-0.2097,-0.4801,-0.2210,0.0843,0.2874,-0.0613,-0.3386,-0.2785,0.4174,0.2559,0.4181,-0.1862,0.2341,-0.4729,0.0119,-0.3641,0.0817,0.0677,0.0154,-0.0653,-0.0680,0.3149,0.2582,0.1349,-0.3139,0.3844,-0.0907,0.4323,0.1494,0.3749,0.4859,-0.3627,0.4513,0.4873,-0.2758,-0.4852,-0.4073,-0.1796,-0.4096,-0.0523,0.4169,-0.3704,-0.2682,0.0572,0.1324,0.4740,0.0399,-0.2800,-0.4918,-0.3985,-0.1379,-0.2681,-0.0707,-0.1271,0.2354,0.0103,-0.0227,0.4036,0.3037,0.2590,0.4205,0.1308,0.3307,0.1555,-0.1771,-0.2701,0.1902,0.2104,0.1720,0.1987,0.3577,-0.0517,-0.0804,-0.0937,0.1273,0.2197,-0.3552,0.2434,-0.1602,-0.0467,0.2731,0.0536,-0.3868,0.3999,0.0848,0.3294,-0.0944,-0.4204,-0.1727,-0.2574,-0.3648,-0.4254,-0.4101,-0.0334,-0.4273,-0.0587,-0.2381,0.2727,0.1833,0.0814,-0.3736,-0.2851,-0.1646,-0.4068,0.3925,0.0347,-0.1071,0.4818,-0.3097,0.2693,0.2944,-0.1690,-0.1024,-0.3664,0.3629,0.1092
-0.1473,-0.0249,0.4521,0.2189,0.3448,-0.3769,0.3291,0.1587,0.0221,0.0806,-0.4416,-0.1586,-0.0519,0.0290,0.2605,-0.3283,-0.2754,0.0149,0.0585,-0.4451,0.0517,-0.2717,-0.2015,0.0441,-0.0315,0.4953,0.2043,-0.3441,-0.1826,0.4765,0.4133,-0.3782,0.0477,-0.1030,-0.1319,-0.2737,-0.0472,0.2581,0.3513,0.3990,-0.3159,0.2820,-0.2929,-0.1051,-0.3241,0.3758,0.2716,0.1419,-0.1457,0.0529,-0.1989,-0.1575,-0.1334,0.4566,0.3115,0.2837,-0.1754,-0.4110,0.2986,0.0115,0.2480,0.4970,0.1727,-0.0666,0.3177,-0.0974,0.4079,-0.1147,-0.2278,-0.0408,0.2845,-0.4359,-0.0982,-0.2753,0.2723,0.3071,-0.0283,0.2702,-0.3428,0.2766,-0.2847,0.3059,0.4840,-0.0198,-0.0629,0.0864,0.3982,-0.0535,0.3861,-0.2527,0.2495,-0.1650,-0.4952,-0.3129,-0.4676,0.4326,-0.0340,-0.4324,0.4659,0.4324,0.0695,-0.1101,0.0524,0.0465,0.4299,0.3709,-0.3456,-0.2955,0.4949,0.2506,-0.3472,-0.3217,0.2674,-0.4983,0.3191,0.1343,0.4759,-0.2596,-0.4885,-0.4540,-0.4681,-0.0282,0.2154,-0.0448,0.4891,-0.1112,0.3409,0.2100,0.4665,0.4885,-0.1060,-0.3845,-0.4148,-0.3799,0.0096,0.4230,-0.0592,-0.0939,-0.2615,0.4402,-0.2245,0.3647,0.1859,-0.0969,-0.1038,-0.4927,0.0179,0.4407,-0.0221,-0.2367
0.0276,0.0626,-0.1534,-0.0139,0.3919,0.1112,-0.1646,0.3091,0.0538,0.3358,-0.4011,0.2954,-0.2053,-0.4272,0.1783,0.1319,0.2777,-0.4037,0.2068,-0.2932,0.1832,-0.0242,0.0892,-0.3977,-0.3460,-0.1903,-0.3995,-0.0280,0.1124,0.0525,-0.4906,-0.3403,-0.1631,0.2155,0.1578,0.2454,0.3190,-0.3770,0.3858,-0.1867,-0.2278,0.3365,0.2312,-0.1368,-0.1432,0.0350,0.4460,-0.0397,-0.0060,-0.1354,0.2043,-0.0564,0.3465,-0.2126,0.0774,0.3520,-0.3772,-0.4999,0.1091,-0.0863,0.4995,-0.1712,-0.0207,-0.2523,0.0992,-0.4456,-0.0700,0.0620,-0.0198,0.4678,-0.1796,-0.2034,-0.3943,0.1947,-0.2024,0.2400,0.2380,0.2265,-0.2041,0.4525,0.3983,0.2101,0.2569,-0.2529,-0.4789,0.4826,-0.2619,-0.2507,-0.0820,0.4165,0.4661,-0.1712,0.3026,-0.1789,0.3842,-0.0554,-0.4608,-0.4881,-0.2519,0.4488,0.0012,0.1468,-0.4186,-0.2808,0.1906,0.1826,-0.1999,-0.2893,0.0243,-0.0115,0.2690,-0.1801,-0.4538,0.2303,0.3384,-0.3255,0.2202,0.0388,-0.0563,0.4312,-0.0640,-0.0668,0.3845,-0.3825,-0.3934,-0.0987,-0.3692,0.1167,-0.2676,-0.3036,-0.2107,-0.0492,0.4781,0.1781,-0.4019,-0.2744,0.0880,-0.1420,0.2257,-0.4950,0.3119,0.3346,-0.4407,0.2771,0.3120,0.1290,-0.2802,-0.2917,0.0593,-0.2022
0.2311,-0.4615,-0.0559,-0.2620,0.3702,0.3419,-0.4260,-0.4446,-0.1529,0.4339,-0.1060,0.2334,0.5691,0.4624,-0.3628,0.4956,0.2631,-0.2066,-0.1982,-0.3542,-0.0876,0.0240,0.3771,-0.3929,0.3771,0.0574,0.1876,-0.2227,0.4664,0.0678,0.5042,0.0989,0.1744,-0.3049,0.0805,0.5172,-0.2187,0.2966,-0.2427,0.1688,0.4409,0.5661,0.1078,0.5134,0.2207,-0.2872,-0.0623,-0.2305,0.3786,-0.0185,-0.1145,-0.1006,0.0325,0.2195,-0.3861,-0.4481,-0.2155,0.2000,-0.3452,0.2489,-0.2541,-0.0497,-0.1674,0.4994,-0.0664,-0.4081,-0.1051,0.4284,0.5114,-0.3635,0.2216,-0.3530,0.1511,0.0643,0.2300,0.4199,0.4424,-0.3723,0.1815,0.2569,-0.2973,-0.1324,-0.2300,-0.0918,0.3715,-0.3864,0.3701,0.0122,0.3743,-0.1304,-0.0761,-0.3118,-0.0720,0.1256,0.0214,0.5249,-0.3397,0.3806,0.4096,-0.2572,0.3463,-0.1985,0.1620,-0.4408,0.4225,0.3390,0.3004,0.3633,-0.3694,-0.2222,0.3145,-0.2231,-0.2052,0.1170,0.0095,0.1861,-0.1308,-0.1023,0.1512,0.2353,0.2934,0.2811,0.3966,0.0973,0.1461,-0.2373,-0.1504,0.0096,-0.4256,0.4982,0.4440,0.5111,-0.3553,-0.3459,-0.1304,0.2166,0.3747,0.4340,0.2924,-0.0507,0.0495,0.0934,-0.0263,0.2709,-0.1783,0.2987,0.3513,-0.0980,0.3149,0.4980
0.2782,-0.2051,0.0414,0.1751,0.2932,-0.2365,-0.3563,0.2667,0.2952,0.0828,0.2313,-0.1798,-0.0553,-0.4384,-0.4056,0.5239,-0.0643,0.1750,-0.0387,0.0815,0.2752,-0.1688,0.2924,0.3759,-0.2640,-0.2645,0.7601,0.7864,0.2344,-0.2098,-0.0996,0.0334,0.2788,0.4161,0.3478,0.5725,0.4792,0.2387,0.2400,0.6823,0.0468,0.5058,-0.1120,0.1806,-0.0154,-0.0586,-0.2126,-0.3403,-0.1866,0.1168,-0.2918,0.0919,-0.3061,0.1322,0.1669,0.0236,0.8030,0.2726,-0.1013,0.5798,0.4594,0.2523,-0.0053,0.4638,0.3205,0.2023,0.3070,-0.0294,0.3598,0.1259,0.6808,-0.0514,-0.0031,0.4004,-0.2563,0.0179,0.2461,0.4244,0.1587,0.4598,-0.0727,-0.2476,0.2383,-0.0091,0.2305,-0.3077,0.1331,0.2058,0.0579,0.0495,0.1282,0.4121,0.1428,0.4176,0.1407,0.6877,0.2523,0.1014,0.2879,-0.3203,0.5470,0.3378,0.1181,0.3854,0.6798,0.4677,0.5427,-0.0670,0.3251,-0.1184,-0.3218,0.2639,0.1129,0.3288,0.3615,0.2340,0.7891,0.0316,0.6717,0.2404,0.1383,0.5411,0.4109,-0.0892,0.5238,0.6516,0.1079,0.6142,0.3475,0.4002,0.5918,0.0672,0.5117,-0.0424,0.2216,0.1406,-0.4471,0.6076,0.1199,0.4682,0.4073,0.6053,-0.1327,0.5155,0.6027,-0.1964,0.6462,-0.0171,0.0809,0.2136
1.1505,-0.1062,1.1208,0.0490,0.3118,0.4878,0.4095,-0.1056,0.9507,1.1532,0.0749,0.4377,0.7860,0.6757,0.6425,1.0340,1.0205,1.4073,0.7276,0.7391,0.8101,0.8944,1.0699,0.5788,-0.2170,0.1546,0.9326,0.5633,0.7875,1.2625,0.6946,0.9607,-0.2042,0.5338,1.3445,1.1055,1.5099,1.4444,1.6305,0.7952,1.4581,0.3776,1.0882,0.5836,0.9708,1.2796,0.4127,0.2839,0.7538,0.0003,-0.2167,1.0183,1.0231,1.6343,0.5739,0.0532,0.9543,1.0567,1.2672,0.6813,1.1633,0.8048,0.8929,1.2467,0.2362,-0.1219,0.8622,0.8895,0.1054,1.4008,0.4559,0.7192,0.7893,0.5089,0.4666,0.7561,1.1265,0.2337,0.5302,-0.0119,-0.1290,0.7585,1.1206,0.8850,1.0747,0.9052,1.3325,0.8343,0.5762,0.7661,1.4649,-0.2352,0.6681,0.4675,1.5148,1.2211,0.1661,0.9356,0.7103,0.6460,0.9203,0.8574,0.4829,1.5104,1.3274,0.6763,0.7608,-0.1827,0.9082,1.4856,0.5735,0.5089,0.7918,1.1757,0.7055,0.3516,1.5008,1.1958,1.7303,0.5584,1.1597,0.5328,-0.0939,0.7069,0.7527,1.1036,0.1278,1.4772,-0.2976,0.1195,1.1792,0.8929,0.5710,1.5551,0.3827,1.3763,0.6184,1.1366,1.3381,0.9143,1.0761,1.7228,1.1791,0.5753,0.4708,0.2917,0.9503,1.5435,1.7904,0.4122
1.6505,0.1972,0.9556,0.4646,-0.1376,-0.1086,1.2858,0.1799,0.6814,0.7756,0.2134,1.0494,1.0378,0.5405,0.1177,0.1896,1.2070,1.0695,0.8097,0.0772,0.8245,1.0297,1.8685,0.7283,-0.0258,-0.1507,-0.0399,0.7273,0.1879,1.2374,1.3016,0.5858,0.0289,0.1292,0.7402,0.6989,1.4706,0.6347,1.5749,1.4627,0.9448,0.5344,1.2458,0.8600,0.9751,0.9853,0.4242,0.2047,0.2135,0.6998,-0.2167,1.0121,0.5784,1.3026,0.5665,0.2490,0.8567,0.8738,0.9858,1.1155,1.0107,1.1420,0.2842,1.7541,0.2739,0.2628,0.4557,1.4114,0.2773,0.9784,1.1732,0.7309,1.2324,0.7740,0.1880,0.4776,0.7476,0.3958,1.2082,-0.0962,0.3954,0.3189,0.9079,0.9694,0.5832,0.4992,1.1338,0.7668,0.9159,0.7347,0.9266,0.6961,1.1938,0.5778,0.9458,0.9103,-0.0056,0.5494,1.2029,1.1425,1.4094,1.1570,0.5672,0.8182,1.0875,0.2980,1.2963,0.1061,0.7126,0.6868,0.2373,0.3796,0.7211,1.1527,0.8322,0.1813,1.2680,1.1346,1.8167,0.4383,0.9506,0.9690,0.2535,0.9872,1.1322,1.1687,0.5817,0.9462,-0.2323,0.1286,1.3223,1.4044,0.1148,0.8986,0.4737,0.8545,0.2316,0.6570,1.0429,1.0951,0.8184,1.5459,1.2539,0.6090,0.7923,1.0188,1.1983,1.1411,1.8993,0.4574
0.6978,-0.2005,0.6874,0.1127,0.3969,-0.4245,0.3909,0.0227,0.3355,-0.1151,0.2454,0.1083,0.5980,-0.2948,0.2660,0.0449,-0.2336,0.0788,0.4200,0.3024,-0.3085,0.4348,0.1801,0.0865,-0.1086,0.4391,0.1448,-0.1023,0.6728,0.4222,-0.2982,0.6682,0.0160,0.2467,-0.0433,0.5793,0.3619,0.4907,0.2845,-0.1520,0.4380,0.1272,0.5891,-0.3267,0.5773,-0.1794,-0.3428,0.2205,-0.1600,0.1643,0.2469,-0.1744,0.4592,0.5209,0.1780,-0.0734,0.1578,0.5377,0.7811,0.3826,0.3329,0.1255,0.2138,0.5980,-0.0758,-0.4198,0.1548,-0.0881,-0.2899,0.4881,0.5325,0.7705,0.2304,0.4648,-0.1558,0.1885,-0.0202,0.2834,0.2615,-0.3976,0.4235,-0.3117,0.5422,0.3100,0.4657,-0.2418,0.4912,0.0681,-0.0521,0.7011,0.0402,0.0339,0.5241,-0.2294,0.3042,0.5299,0.0456,-0.0204,-0.0165,0.6962,0.3396,0.5063,-0.1369,-0.1567,-0.1204,0.4404,0.5828,0.4796,0.4530,0.7170,-0.2657,-0.0911,0.5031,-0.1512,0.5928,0.5356,0.3124,0.7045,0.3600,-0.2032,-0.0316,0.4891,0.1712,0.1980,-0.0357,0.5710,-0.2542,0.2287,-0.2684,0.0848,0.6137,0.0370,0.1911,0.2806,-0.3030,0.2856,0.4308,0.2324,0.3281,-0.1573,0.4818,0.1707,-0.1875,0.1886,-0.1393,0.4111,-0.0603,-0.2751,0.1199,0.0498
-0.0029,0.3624,0.3976,-0.1776,-0.1125,0.3572,0.2430,0.4932,0.3162,0.1669,0.2259,-0.3913,-0.0372,0.3131,0.1627,0.0327,0.0105,-0.0148,0.5733,0.4361,-0.1571,0.5446,0.2346,0.2960,-0.0099,0.7593,-0.1742,-0.3998,-0.1668,0.3651,-0.3366,0.3387,0.3912,-0.3650,0.6436,-0.1480,0.3760,0.2294,-0.1942,-0.0660,-0.2599,-0.4474,0.2313,0.2707,0.2007,0.1946,0.5074,0.4797,0.6348,-0.0408,-0.4389,-0.2859,-0.1311,-0.1120,0.0967,0.3044,-0.2413,0.0794,-0.0474,0.0160,0.6019,-0.0533,0.2021,0.2331,0.4438,-0.2305,-0.3324,-0.0123,-0.4366,-0.3029,0.1420,0.1892,-0.0372,-0.1625,0.2944,0.2651,-0.2563,0.7481,-0.0832,0.4697,0.3790,0.3622,0.4507,0.6514,0.5269,0.1783,0.3225,0.4577,0.0610,0.0857,0.7628,-0.0618,0.1521,-0.3855,0.6448,-0.4035,-0.1530,0.3314,0.5833,0.6949,0.6055,0.1688,-0.2558,-0.0615,0.3227,-0.1195,0.7561,0.1026,0.3534,0.6252,-0.2914,0.0875,0.0521,-0.0442,-0.2326,-0.1671,-0.1724,0.0509,0.1309,0.1091,0.2870,0.2998,-0.1327,-0.1994,-0.0378,-0.4936,0.4336,0.7183,-0.0906,0.3232,0.2873,-0.2088,-0.0759,0.4590,0.5038,0.3497,-0.2272,-0.2029,0.4911,-0.0844,-0.3088,0.1435,-0.3335,-0.1105,0.4747,0.5126,-0.0458,0.2205,0.6270,0.1246
-0.2912,-0.3666,-0.3978,0.2308,0.4248,0.3110,0.2351,-0.2051,-0.3958,0.2195,-0.0370,-0.0530,-0.3960,-0.3062,-0.4970,0.1307,0.4707,0.0543,-0.0961,-0.2804,-0.0268,-0.4088,-0.2619,-0.2544,0.2743,-0.3159,0.3178,0.4714,-0.1861,-0.0937,-0.2995,-0.0825,-0.2407,0.2321,-0.1371,-0.2999,-0.4448,-0.2248,-0.1861,-0.3469,0.4085,-0.2818,0.3126,0.1247,0.3510,-0.2441,-0.0408,-0.2341,-0.1981,0.4209,0.2381,0.3355,-0.3484,0.0910,0.2004,-0.1244,-0.3175,0.1272,-0.4017,-0.3772,-0.2482,-0.4223,-0.2074,0.1343,0.4866,0.1079,0.0424,-0.2269,0.4144,-0.3706,-0.2160,0.1078,-0.0657,0.0023,0.1699,-0.0435,0.3082,0.3127,-0.0039,-0.3959,0.0769,0.3822,-0.3583,-0.4221,-0.0687,-0.3356,0.3533,-0.4692,0.3650,-0.1276,0.1786,-0.2734,-0.4813,0.4935,0.4079,-0.4679,0.3520,-0.4500,0.1246,0.2196,0.4611,0.1175,0.3490,-0.2595,0.3110,0.4645,-0.3466,0.3099,0.0371,0.4073,0.0967,0.4970,0.5023,0.1098,0.5000,0.3096,-0.0333,0.4445,-0.2330,0.2481,0.5167,0.2735,0.3145,-0.1097,0.2465,-0.1442,0.2330,0.5282,-0.1605,0.4982,0.3018,-0.0719,-0.4371,0.1995,-0.1316,-0.4357,0.1224,-0.4353,-0.2609,0.4586,0.3577,-0.2528,0.1435,0.4005,-0.0493,-0.2207,0.3436,-0.1685,0.1591,-0.2719
-0.4910,-0.4583,-0.2485,0.1050,0.2940,-0.2587,-0.4751,-0.3232,0.4954,-0.3228,-0.1752,-0.2990,0.1008,0.2524,-0.2232,0.3412,-0.0600,0.1981,-0.0163,0.3800,0.3448,0.1057,-0.3435,0.4300,-0.2920,-0.1849,-0.3523,0.1578,-0.4460,-0.1344,-0.3574,-0.2769,-0.3451,0.4392,-0.3190,-0.3989,-0.2707,0.1138,0.1981,0.4734,-0.0263,0.1572,-0.0133,0.1786,0.1537,0.4674,0.0672,-0.1063,-0.3810,0.3530,0.1507,-0.1178,0.3293,0.4540,-0.3862,-0.4465,-0.1170,-0.1380,-0.0594,-0.4478,0.2035,0.3106,0.1726,-0.3305,-0.1052,0.1492,-0.0531,-0.0284,-0.1060,-0.4821,-0.3643,0.3154,0.3579,-0.2293,-0.1061,0.2259,0.4074,-0.4537,-0.1464,0.4188,0.1360,-0.2997,-0.1200,-0.4643,-0.4191,0.4173,-0.4655,-0.1305,-0.0852,-0.2152,-0.2710,0.0395,-0.1484,0.3976,0.4090,-0.2582,0.0592,-0.0847,-0.0762,-0.2778,0.0428,0.3884,0.3136,0.1259,-0.4951,0.3110,-0.4753,0.0881,-0.3216,-0.4732,0.4841,-0.2977,-0.0352,-0.3432,0.0074,-0.1889,-0.0533,0.4010,0.1300,0.0860,-0.4839,0.2928,-0.2727,0.0193,0.0466,-0.4571,0.4342,0.2746,0.1335,-0.1887,0.4887,-0.1853,-0.1544,0.0965,-0.1306,0.0103,0.2877,-0.4993,0.1931,0.1540,0.2021,0.0597,-0.3550,0.4349,-0.1667,0.4118,0.4437,0.2992,-0.1117,0.4355
-0.1824,-0.3400,0.2345,-0.0051,-0.2983,0.4162,-0.0062,0.3831,0.0824,0.2248,-0.3243,-0.1242,-0.0587,-0.2661,0.3259,-0.4456,-0.0260,0.2616,0.1610,0.4573,0.2290,-0.1399,0.2931,0.1130,-0.2133,-0.2719,-0.2940,0.2035,-0.1121,0.2014,0.1218,-0.3959,-0.0544,-0.1224,0.3185,0.4523,0.1736,-0.4257,0.0560,-0.1203,-0.1739,-0.4326,0.0101,0.4213,0.2887,-0.0276,0.2870,0.3057,-0.0985,0.2464,0.0973,-0.1021,0.0111,-0.2161,-0.4444,0.2258,0.0990,-0.1245,-0.2782,-0.3128,-0.0333,0.1529,0.2412,-0.2441,-0.0551,0.1100,0.3988,0.2275,-0.0279,0.1624,0.2796,0.1698,0.0319,0.4315,0.2959,0.0091,0.4501,0.3184,0.4454,-0.1423,-0.0339,-0.3051,0.0483,-0.3170,0.3058,-0.3011,-0.1250,-0.2440,-0.1666,0.4149,-0.0656,0.4020,0.3788,0.0799,0.0507,0.1695,0.3187,-0.0285,-0.2526,-0.0291,0.2972,-0.3129,0.3756,0.0969,-0.0401,0.3031,0.0556,0.1955,0.3082,0.0722,-0.2497,-0.4461,0.4139,0.4220,0.1104,-0.1263,-0.2345,-0.1486,0.3427,0.3030,-0.0188,0.4742,0.0039,0.2045,0.4854,0.2469,-0.3497,0.0557,0.1750,-0.4674,-0.3017,-0.1309,0.1595,0.4382,0.4739,-0.3596,-0.0205,-0.2521,0.1136,-0.0821,0.2475,-0.4746,0.2800,-0.2088,0.0677,0.3613,0.3062,0.0113,0.1220,-0.4940
0.1912,0.1414,-0.0216,-0.0644,0.3693,-0.3902,-0.4190,-0.2420,-0.1943,0.3429,0.3099,-0.1033,-0.3577,-0.4930,-0.0538,0.3988,-0.0395,-0.3696,-0.3072,-0.1498,0.2743,0.1663,-0.1235,0.0456,0.2764,-0.0203,-0.2681,-0.1276,-0.4707,-0.0243,-0.0128,-0.4943,0.2095,-0.1577,-0.3796,0.2674,0.2596,-0.3616,0.0357,-0.0976,0.2191,0.3635,0.1496,-0.1980,-0.0070,0.1967,0.4684,0.2103,-0.4849,-0.0901,-0.3402,0.1986,-0.1017,-0.3746,-0.4778,0.1398,-0.3775,0.2770,-0.4470,0.2750,-0.1608,0.4124,0.4715,0.0617,0.0031,0.0858,0.3854,0.3715,-0.2788,0.1638,-0.1104,0.1990,0.3437,-0.3416,-0.1085,-0.4319,0.0075,-0.3500,0.4417,0.1845,-0.2068,-0.0582,-0.2012,0.0516,0.4424,0.4702,-0.4563,0.3124,0.2075,0.0809,-0.1026,0.4048,-0.0412,0.4846,0.1107,0.4978,-0.3844,0.0998,0.0451,0.1893,0.4872,-0.3591,0.2559,-0.0667,0.4929,-0.4656,0.2811,0.4794,0.2475,0.1622,0.2294,-0.2290,-0.0101,-0.2497,-0.1798,0.1433,0.2932,-0.4692,-0.2622,-0.0752,0.1917,-0.3367,-0.1245,-0.2517,-0.2966,0.0094,-0.0168,0.3271,-0.0548,0.3118,0.4479,-0.2589,0.1347,-0.0230,-0.3348,-0.1231,0.0004,0.2096,-0.2756,0.0437,-0.3783,-0.0730,0.0359,-0.1177,-0.3536,0.0099,0.3039,-0.3249,0.3739,0.0505
0.0485,0.2762,0.1017,0.1032,0.0708,-0.2321,-0.0414,0.0581,-0.0836,-0.3082,-0.3844,-0.4065,-0.1935,0.3100,0.4573,-0.3192,-0.3682,-0.2161,-0.3115,0.0110,0.4277,-0.3071,0.0721,0.0143,0.4449,-0.0143,0.0094,0.3216,0.0383,0.1866,-0.3111,0.4677,0.3536,0.2576,-0.2321,-0.0131,-0.4106,0.1134,0.0765,-0.3098,-0.3929,0.2214,0.1721,0.0276,-0.1543,0.3738,-0.3128,0.0809,0.4217,0.4375,-0.1162,-0.3793,0.3706,0.1687,-0.2435,-0.3418,-0.1848,0.2987,0.2572,0.1718,-0.3965,0.0951,-0.4789,0.1790,-0.0722,0.1320,-0.2115,-0.0517,0.2492,0.1318,0.1836,0.4389,-0.1824,0.4236,-0.0699,-0.0018,-0.2746,-0.4364,0.1224,0.3542,0.1047,0.0794,0.2269,-0.3313,-0.2377,-0.3693,-0.2324,-0.4657,-0.4610,0.3620,0.2894,-0.1717,-0.2296,-0.2046,0.2265,-0.2569,-0.3442,0.1490,0.4578,0.4075,-0.2891,-0.3285,0.2282,-0.0402,-0.3351,0.2041,0.4888,0.2152,0.3738,0.3784,0.1411,0.4174,0.4476,0.1030,-0.1399,-0.4894,-0.4452,0.3333,0.2207,0.4814,0.4905,0.3026,0.3596,-0.4800,-0.2632,0.2659,-0.0711,-0.1542,-0.0404,0.3963,0.2467,-0.2652,-0.2082,-0.3180,-0.1164,-0.1323,-0.1058,0.1501,0.3022,0.3211,-0.0104,-0.1395,-0.2135,0.1982,0.4013,-0.3498,-0.3043,0.0225,-0.3403,0.1596
-0.2554,0.4447,0.1399,0.2967,0.1748,-0.3353,0.0371,0.4050,0.1342,0.1727,-0.0571,0.0246,0.3649,-0.0836,0.3143,0.2968,0.2484,0.1785,-0.4325,-0.3033,-0.2294,-0.0652,-0.2949,-0.2725,0.0145,-0.2302,0.3899,-0.0331,-0.3685,0.1196,-0.3631,-0.3228,0.0557,-0.1687,-0.2306,0.0586,-0.0879,-0.0187,0.2989,-0.3065,-0.4277,-0.0177,-0.0963,0.2873,-0.3884,-0.0954,-0.0861,-0.4745,-0.0552,-0.1202,-0.4466,0.2849,-0.1881,-0.3154,-0.3002,-0.3472,0.3398,-0.4190,0.4783,0.1411,-0.4194,-0.1787,0.2915,-0.3951,-0.1435,-0.0964,0.0358,-0.4770,0.2016,-0.1057,0.3830,0.4497,-0.2732,0.0596,-0.0248,0.4377,-0.0284,0.1455,-0.0072,-0.4382,-0.1382,-0.2829,0.2380,-0.3989,0.0021,0.2015,-0.4095,0.4103,0.2664,-0.0174,0.3025,-0.0427,0.3250,0.1408,-0.4541,0.0491,-0.3864,0.2375,-0.3663,0.0084,-0.1132,-0.1019,-0.2659,-0.0204,0.2793,0.0532,-0.1317,-0.1158,-0.4222,-0.1360,-0.4594,-0.1885,0.2562,-0.3173,-0.3953,-0.1738,-0.2105,-0.0104,0.2467,-0.2668,-0.0352,-0.2025,-0.0897,-0.3910,0.1737,0.1767,0.1647,0.3180,-0.0785,0.4317,-0.1103,-0.0598,0.0767,-0.0933,0.1207,0.0100,-0.0112,0.1916,-0.2368,0.2277,0.2268,0.3611,0.1641,0.1185,-0.1834,-0.4282,-0.4088,-0.3579,0.4280,0.4818
0.0705,-0.2853,0.0653,-0.4036,-0.2337,-0.4910,0.0751,0.4166,0.4962,0.1819,-0.1108,-0.3535,-0.1920,0.4878,-0.0612,-0.4260,-0.2023,0.4014,-0.0863,0.2947,-0.0341,0.4200,-0.0130,-0.3642,-0.1445,-0.2190,0.2198,0.3569,-0.4696,0.0345,-0.2245,-0.1844,-0.1592,-0.2179,-0.3099,0.3188,0.4547,0.1141,-0.2808,-0.2784,0.0449,0.4134,-0.3665,0.2776,0.0796,-0.0018,-0.2580,-0.2541,0.0440,0.4545,0.1874,-0.0492,-0.2507,0.4889,0.2509,0.4898,0.1472,-0.3468,0.2733,-0.1449,0.0986,-0.2491,0.0586,0.3399,0.4421,0.0546,-0.3491,-0.0474,-0.2002,0.3844,0.1003,0.2744,0.3830,0.4288,0.4278,-0.0888,-0.0235,0.2469,-0.0419,0.0861,0.0247,0.1477,0.1890,0.1001,0.3044,-0.3966,-0.0975,0.3821,0.0910,-0.0685,0.0401,-0.3751,-0.0362,-0.1432,-0.3527,0.1746,-0.4533,-0.3118,0.2553,0.1498,-0.0337,0.1413,0.2710,0.0222,0.1428,0.4857,-0.3848,-0.1743,-0.4977,-0.3296,0.3669,0.0760,-0.1445,-0.4857,0.1395,-0.0961,-0.0674,-0.2179,0.1564,0.1690,0.4124,-0.3101,0.1316,-0.4324,0.0721,-0.4358,0.3746,0.4626,-0.0468,0.4406,0.4832,-0.3094,0.3272,0.3489,0.3706,0.3796,-0.2562,0.2721,-0.1624,-0.3577,0.1319,-0.1207,-0.0859,0.1443,0.1292,-0.1976,0.1348,-0.3620,0.3022,-0.3054
0.4082,-0.1677,-0.4679,-0.0735,0.2792,-0.0202,-0.1879,-0.0787,0.2929,-0.3249,0.4582,-0.3292,-0.0300,-0.3614,-0.3153,0.4289,0.4913,0.4289,0.2244,-0.2999,-0.3451,-0.4885,-0.4373,0.2122,-0.3056,0.4931,-0.4117,-0.3760,-0.3652,-0.2844,0.1174,-0.1606,0.2667,-0.0996,-0.0393,0.2699,-0.0199,-0.2275,-0.3571,0.0064,0.3631,-0.3056,0.2296,0.4392,0.3802,-0.2869,-0.2750,0.1917,0.3041,-0.4373,-0.1242,-0.0350,-0.3638,-0.0444,-0.0916,0.3254,0.4879,-0.1271,-0.2055,-0.4053,0.4117,-0.1853,0.0597,0.3830,-0.3931,-0.1066,-0.4648,0.4690,-0.1282,0.4511,0.0687,-0.1136,0.0028,-0.0376,-0.2521,0.2009,-0.1764,-0.4610,0.0759,-0.3774,0.2685,0.4715,-0.1378,-0.3144,-0.2755,0.0704,0.4706,-0.0308,0.1972,0.2429,0.0991,0.2466,0.2584,0.0958,-0.2748,-0.1750,-0.1094,0.3513,0.3900,0.2631,0.4121,0.2809,0.1991,-0.1372,0.4062,-0.1742,-0.2799,0.0373,-0.0081,0.0202,0.4095,-0.3082,-0.2287,0.1331,-0.4748,-0.2030,-0.2497,-0.4499,0.2302,0.4885,-0.1781,-0.1391,0.0173,0.0393,-0.2654,-0.3614,0.4272,-0.2001,-0.1310,0.1728,0.1495,0.3681,-0.4080,-0.3639,-0.3653,0.0444,-0.2737,0.3235,0.2885,0.2115,0.2446,-0.3037,0.3792,-0.1154,0.0164,0.2577,-0.2295,0.3883,0.2421,-0.1691
-0.3062,-0.2067,0.2151,0.0593,0.0730,0.3484,0.3387,-0.1319,-0.3993,0.0971,-0.1450,0.0709,0.1989,-0.1875,0.2126,0.2672,-0.1922,-0.0680,-0.2337,0.0063,0.1458,-0.4703,0.2007,0.0226,0.3544,0.3412,0.4831,0.4697,0.0064,-0.2731,0.3103,-0.1906,0.3935,0.3112,-0.2415,-0.4042,-0.1781,-0.0986,0.1344,0.2004,-0.3264,0.4011,-0.2963,-0.0643,0.3154,-0.2271,-0.0286,-0.2418,0.0609,-0.2440,-0.2033,0.1076,-0.2741,0.0108,-0.3403,0.2116,-0.0327,0.1524,-0.4757,0.4275,-0.0726,-0.2209,-0.0635,-0.3237,-0.1346,0.4481,-0.0961,-0.1964,-0.2995,0.3060,0.0351,-0.4975,-0.3970,0.2805,-0.4388,0.2100,0.2161,-0.2560,0.3438,0.2289,-0.3323,-0.2477,0.2237,-0.0581,0.0590,-0.2805,0.4180,-0.2423,0.4017,-0.2293,-0.3321,0.3174,0.0071,-0.2973,0.0001,-0.1112,0.4483,-0.4782,0.3220,0.1769,0.4314,0.4562,0.0575,-0.0897,-0.1013,0.4397,-0.0424,-0.4898,-0.4953,0.2479,-0.3678,-0.1804,0.2610,0.4167,0.0649,0.2902,-0.2279,-0.2557,0.0667,0.2579,0.4467,-0.2274,0.2576,0.3186,0.2475,-0.3178,-0.0864,-0.1645,-0.2892,0.2565,0.1222,-0.1940,-0.0643,0.0457,0.1760,0.4645,-0.1035,-0.4942,-0.4294,0.0834,-0.1285,0.4172,-0.4334,-0.4989,-0.2140,0.2887,0.0042,0.4668,0.2236,0.1901
-0.0193,0.2189,-0.1085,0.2224,0.2448,-0.3705,-0.0840,0.1084,-0.3460,-0.4855,0.2051,0.0270,-0.2594,-0.4859,0.1925,-0.1188,0.0689,-0.0235,-0.2166,-0.2412,0.3359,0.3075,0.3893,-0.1235,-0.2061,-0.3558,-0.4713,0.4848,-0.1743,-0.4026,-0.4827,-0.4178,-0.0997,0.2829,-0.3314,0.0653,-0.2615,0.1558,0.2241,-0.3858,-0.0191,0.2843,0.1213,0.4367,0.2148,0.0788,-0.1730,0.2894,-0.0691,-0.0203,0.3263,-0.3854,-0.2346,-0.3974,0.2764,-0.0255,0.0945,0.1989,0.2686,0.2380,-0.4498,0.2644,-0.0298,0.4196,0.0663,-0.2883,-0.2732,-0.4281,0.0139,-0.1751,0.0838,-0.2230,-0.4087,0.4113,0.3268,0.0486,-0.2231,-0.1521,-0.0214,-0.2704,0.4043,0.2013,-0.1614,-0.3285,0.3744,-0.2247,-0.2924,0.4768,-0.2176,0.0787,-0.3455,-0.4497,-0.4624,-0.2973,-0.2848,-0.3643,-0.3570,-0.0176,-0.0985,-0.0180,-0.1636,-0.1072,0.4299,-0.3403,-0.1065,-0.1133,0.4148,0.2430,-0.3353,0.2122,-0.2624,0.4019,-0.1275,0.1550,0.0569,-0.0088,-0.1415,0.0153,-0.0831,0.4396,0.3069,0.0001,0.2908,0.1882,0.0923,-0.2177,-0.3392,-0.4513,-0.3183,0.0497,0.0510,0.1011,0.1844,-0.0374,0.1567,-0.2383,-0.1232,-0.3261,0.4922,-0.4025,0.4464,0.3651,0.2913,0.2852,0.4168,-0.2609,-0.3418,0.4501,-0.3742,0.4304
-0.4584,0.3621,0.1823,0.2449,-0.1569,-0.0567,-0.1498,-0.0296,0.3678,-0.2929,0.4735,-0.0108,-0.0757,-0.4803,0.2161,-0.2967,0.0763,0.4282,-0.0581,-0.2716,0.4002,-0.4918,0.2051,-0.4659,0.4071,-0.3234,-0.0435,-0.1424,-0.1152,0.1834,-0.0545,-0.0882,0.2928,-0.2297,0.0122,-0.3555,-0.1187,0.2144,-0.2312,0.2886,0.3835,0.3679,-0.1255,-0.3639,0.1570,0.4381,0.1168,-0.0872,0.2488,-0.2736,-0.0608,-0.0080,-0.0071,0.2966,0.0670,-0.0459,-0.3667,-0.1717,-0.1905,-0.0675,-0.4934,-0.1413,0.0480,-0.4128,0.2264,0.1780,0.3531,-0.2845,-0.2516,0.1584,0.4934,0.4329,-0.0196,-0.3136,0.2452,-0.2448,0.0828,-0.0570,0.4843,-0.4558,-0.3230,0.3439,0.3948,0.1229,-0.0695,-0.0695,0.0485,-0.1681,-0.2860,0.2059,-0.1590,-0.4386,0.4754,-0.1251,0.1728,-0.0012,-0.3854,-0.0850,0.3538,0.2881,-0.1917,0.0102,0.0419,0.1603,-0.3354,0.4340,-0.0296,-0.2903,0.3113,0.4985,-0.1594,0.2853,0.0773,-0.1399,-0.0168,-0.0143,-0.3223,-0.4574,-0.0676,0.1102,0.3095,-0.3462,-0.3483,-0.0276,-0.1862,-0.3697,-0.3759,0.2424,-0.4088,-0.0151,0.0652,-0.1084,0.0174,0.1732,-0.2629,-0.3093,0.2331,0.3289,-0.0531,-0.4109,0.2906,0.1234,-0.2332,-0.3806,0.2080,-0.2728,0.2385,-0.4098,-0.4055,-0.0600
0.2366,0.0908,0.0213,-0.3097,-0.3301,-0.4250,0.2602,0.3349,0.1415,0.0334,-0.3645,0.3816,-0.3317,0.0161,-0.4754,-0.2637,-0.1212,-0.1448,0.1588,-0.4016,0.3261,0.3134,0.4160,-0.1969,-0.0956,-0.4619,-0.1262,-0.4962,-0.3545,-0.2133,-0.4286,-0.3171,-0.0515,0.3489,0.1011,0.2023,-0.4414,0.4409,0.4831,-0.4797,0.0062,-0.2973,-0.3088,-0.3225,-0.2033,-0.1694,0.1531,-0.0953,0.1016,0.4453,-0.3995,-0.4148,0.4735,0.2639,0.0860,-0.1231,-0.0338,-0.3057,-0.0616,-0.2409,-0.1038,0.2073,0.1619,0.2252,0.0674,0.2274,0.4515,-0.3343,0.2329,0.3081,-0.4334,0.2831,0.4139,-0.1613,-0.0346,-0.3123,-0.2816,0.2619,0.0689,-0.0182,0.1018,-0.1932,-0.2576,-0.1304,-0.2557,-0.1843,-0.0175,-0.4054,0.0740,0.2187,0.3172,0.3537,-0.3378,0.1234,-0.0208,0.2357,0.1734,-0.0981,0.4533,0.4259,-0.0310,-0.1457,0.2165,0.1196,0.3017,0.0424,0.4734,-0.0510,0.2717,-0.3793,0.4582,-0.3354,0.4920,0.1912,-0.3758,0.4960,0.4850,-0.4953,-0.3393,0.1919,0.4943,-0.2882,0.1427,0.3597,-0.0692,0.0882,0.1205,0.4552,0.2120,-0.1510,0.1702,0.3391,-0.4467,0.1386,-0.1134,0.3001,0.0901,0.0473,-0.2894,0.3067,0.0186,0.3335,0.4448,-0.3659,0.1534,0.2042,0.0317,0.4659,0.1564,0.2222
0.0836,-0.1246,-0.1122,-0.3228,-0.4386,0.0613,0.4627,0.3360,-0.3313,-0.4087,0.0133,0.0331,-0.1700,0.1010,0.0551,-0.2813,0.0590,0.0840,-0.0975,-0.0462,-0.4795,0.4394,-0.4900,0.3116,0.2569,0.0060,-0.1523,0.4486,0.1193,-0.2888,-0.4314,-0.0770,0.3888,-0.2671,-0.2515,-0.0504,0.0250,-0.4269,0.3752,0.1010,0.1156,0.1280,0.2947,0.1818,-0.2819,-0.2476,-0.1243,0.0696,-0.1813,-0.4483,0.3152,-0.3746,0.0215,-0.1110,0.0291,0.0452,-0.0445,0.3706,-0.2860,0.1889,-0.0504,-0.3581,0.1075,0.1035,0.3829,0.1435,0.1593,0.2366,0.0850,0.3207,-0.1115,0.0425,-0.4807,0.4720,-0.0057,0.2538,-0.3386,-0.4473,-0.2536,-0.3346,-0.4391,-0.3454,-0.1271,-0.1457,-0.4918,-0.3413,0.3017,0.1987,-0.1936,0.2824,-0.4082,0.3255,-0.1644,-0.1846,-0.0353,-0.4051,0.4716,0.1075,-0.0555,0.3823,0.0937,0.0374,0.1665,-0.3313,0.3462,0.2306,-0.2894,0.1137,-0.1146,0.1460,0.0122,-0.0070,0.4735,0.1232,0.4011,0.1264,-0.2997,-0.3242,0.0391,0.3902,0.2361,0.1727,0.0213,0.0792,0.3099,-0.0911,0.4296,-0.4466,0.1079,0.2818,0.1115,0.0308,0.3263,0.4887,-0.2583,-0.4004,-0.3641,-0.2910,-0.4593,0.2301,0.2620,0.4905,0.1882,-0.4911,-0.4782,-0.2737,-0.1090,0.2127,-0.0863,0.4122
0.0903,0.3517,-0.4121,0.4969,-0.4974,-0.2487,-0.4614,0.3119,-0.0394,-0.0217,0.2574,-0.0194,-0.0997,0.4840,0.2920,0.1542,-0.0391,0.2108,0.0697,0.0581,0.4104,0.3130,-0.1125,-0.4370,-0.2340,0.2306,-0.3745,-0.2848,0.4244,0.3290,0.2228,0.1613,-0.1215,-0.0909,-0.3421,-0.1029,-0.0082,0.2495,-0.1030,-0.3956,0.4104,0.1744,0.1901,0.4399,0.1211,0.2875,-0.3158,-0.2615,0.3189,0.0515,-0.1632,0.0993,-0.3833,-0.2229,0.0615,-0.2193,0.2750,0.1770,-0.2515,0.3475,0.0774,0.3641,0.2196,0.4207,-0.2502,0.2915,0.1020,0.4346,0.2432,0.4131,0.1145,0.1259,0.4273,0.4107,0.3967,0.3920,-0.4427,0.3647,0.3079,0.3001,-0.0224,0.1870,0.3315,0.3585,-0.3118,0.2861,-0.3538,0.3254,0.3792,0.2761,0.4783,-0.0536,0.2985,0.1277,-0.1360,-0.1794,-0.3950,0.4079,0.0008,-0.3137,0.2886,-0.4634,-0.4265,0.1374,-0.3883,0.4057,0.3545,-0.2108,0.1405,0.4781,-0.2598,-0.4455,0.0082,0.1971,0.0931,0.0505,-0.2243,-0.1303,-0.2562,-0.3722,0.0181,0.3017,-0.4721,0.2100,-0.0829,0.3916,0.2857,-0.2338,0.3775,0.2423,0.2407,0.4425,-0.4816,0.4256,0.2265,0.1658,0.2850,-0.2605,-0.3099,-0.3994,0.1811,-0.0814,0.2726,-0.1715,0.2418,0.4802,-0.0861,-0.2044,0.0086,0.3006
0.2761,0.2682,-0.3831,-0.0380,-0.2218,0.1355,-0.2443,-0.0568,-0.4826,-0.4747,0.4971,0.3685,0.0557,0.1410,0.4114,-0.1125,0.3133,-0.1033,0.1520,-0.0673,0.2517,0.3874,0.0836,-0.0281,0.4599,0.0131,0.0580,-0.0602,0.2423,-0.0872,0.1848,-0.1661,-0.4542,-0.0755,0.4521,-0.1188,-0.3388,0.2643,-0.2407,-0.1911,0.1324,0.4660,0.0797,-0.0912,-0.4667,0.2381,-0.4669,0.2360,0.1894,-0.3829,0.1311,0.4063,-0.0463,0.2374,-0.3466,0.0594,0.4859,-0.4171,-0.2911,-0.3773,0.0367,0.2502,-0.0249,0.3635,-0.4605,-0.1284,-0.1471,-0.4574,0.4786,-0.1290,-0.0352,0.0669,-0.4853,0.2765,0.0321,0.3729,-0.3555,-0.2079,-0.2647,0.2172,0.1955,0.2120,0.1057,0.4474,-0.2770,0.2260,-0.0129,0.2016,0.2770,0.2548,-0.0748,-0.0952,-0.3021,-0.2068,0.4170,0.3445,-0.1418,0.2499,-0.4184,-0.3619,0.0464,-0.1028,-0.0057,-0.2232,0.2685,-0.0784,-0.3806,-0.4577,0.2100,-0.3805,0.0787,-0.1073,0.3813,0.4069,0.4089,0.3301,0.1609,0.3507,0.3612,0.4696,-0.1257,-0.3023,-0.1072,0.4294,-0.3211,-0.2909,-0.3072,-0.3230,-0.2396,-0.3413,-0.3773,-0.4035,0.3805,0.3369,-0.4445,0.2823,-0.0565,-0.2989,0.3663,0.3014,-0.3642,0.3773,0.2362,0.3921,0.2657,0.0517,-0.1180,-0.0658,-0.1408,-0.4913
0.0250,-0.0840,0.0030,0.0835,0.4880,0.1978,-0.2896,0.1028,-0.0662,-0.2560,-0.2069,-0.1843,-0.4131,-0.2107,0.4532,0.0465,0.1141,0.3560,-0.0844,-0.3607,0.1800,0.4130,-0.2842,-0.1383,-0.1917,-0.0063,0.4908,-0.2402,0.1453,-0.2132,0.4765,0.3909,-0.2359,-0.4838,0.4678,0.4421,0.0544,-0.4386,-0.1429,0.0113,0.1643,0.1895,-0.0982,0.0799,-0.0686,-0.0488,0.3929,0.2256,0.2522,0.1954,0.2500,-0.4106,-0.3325,-0.0224,-0.1332,0.2901,-0.0769,-0.0624,0.4743,0.1652,0.2482,0.3279,-0.4740,0.4354,0.1772,0.0591,-0.0011,-0.3237,0.2185,-0.3881,-0.0172,-0.1750,-0.3943,-0.0867,0.4132,-0.1702,-0.0275,-0.4522,-0.0936,0.4015,0.2281,0.4842,-0.3313,0.3036,0.2290,-0.4930,-0.0786,-0.4172,0.1011,-0.0715,-0.0675,0.3980,-0.4671,0.2227,0.1756,0.1362,0.4099,0.3220,0.1779,0.0135,-0.1781,-0.0457,-0.1147,-0.1914,0.3319,0.3356,-0.4703,0.1470,0.1682,0.1651,-0.0169,-0.2994,-0.0715,-0.4555,0.2012,0.4075,0.0655,-0.1424,-0.1404,-0.4856,-0.4650,0.0321,-0.2384,-0.1563,-0.4633,-0.3961,0.2883,-0.1855,-0.3289,-0.1894,0.4847,0.3765,-0.1475,0.1316,0.4802,-0.3032,0.0240,0.1918,0.3024,0.3981,0.3758,-0.1386,0.1746,0.1936,0.1067,0.0366,-0.0535,-0.4910,0.0222,-0.3155
0.2753,-0.0539,0.0705,0.2697,0.0814,0.2270,0.2977,0.2070,-0.2274,-0.1555,0.4853,0.1458,-0.3176,0.4794,-0.1303,0.1439,0.0919,0.4367,0.4284,0.0609,-0.4593,-0.3978,0.4471,0.0940,0.1332,0.0203,-0.1325,-0.1410,0.2672,0.1633,-0.1468,0.1403,0.0380,0.2801,-0.3951,-0.2934,0.1480,-0.2179,0.4036,0.0367,-0.0804,0.2376,0.3819,0.0980,0.0005,0.0818,-0.3099,-0.0881,0.1764,-0.0901,0.4286,-0.4723,0.2394,0.1755,-0.3168,0.3743,-0.1464,-0.1428,-0.1759,-0.2411,0.2110,-0.1957,0.4236,-0.4307,0.3075,0.2427,0.0540,0.0949,-0.1774,0.4147,0.1186,0.2760,-0.0635,-0.4926,-0.2170,-0.2618,0.2817,-0.1441,0.1359,0.0770,0.1241,-0.4532,0.1468,-0.2968,-0.4944,-0.0849,-0.0452,-0.2407,-0.2401,-0.3880,0.1439,-0.3710,0.2089,0.1425,0.1502,0.0292,0.0692,-0.4123,0.3819,-0.0050,-0.0637,0.4049,-0.3345,0.3212,0.2491,-0.2873,-0.3426,-0.3710,-0.1870,-0.2650,0.0795,0.3104,0.2220,0.4658,0.2405,-0.3624,-0.4725,-0.2283,-0.3156,-0.0690,0.1120,-0.4852,-0.3453,0.1316,-0.1547,0.2892,-0.2961,0.2475,0.3135,-0.1293,0.4786,0.2372,-0.0399,0.4724,-0.1562,0.1118,0.0465,0.0376,0.2440,0.2524,0.4637,-0.4082,-0.0981,-0.0190,0.3037,-0.0208,-0.2070,0.1270,-0.2401,0.3956
0.2799,-0.2388,-0.4150,0.0375,-0.4460,0.3590,-0.0654,0.4238,-0.1432,0.2386,-0.2497,0.4641,-0.1725,-0.2851,0.2160,0.0439,-0.1701,-0.4524,0.4724,0.2821,-0.4076,-0.3939,0.0202,0.3411,0.3890,0.4835,-0.0346,-0.0905,0.3840,0.2407,-0.1441,-0.0889,-0.0358,0.2861,0.4483,0.2261,0.3003,-0.0612,-0.1777,-0.3211,0.1230,0.4109,-0.2215,0.3354,-0.0639,-0.2879,-0.1149,0.0817,0.3921,0.0459,0.2590,0.1639,-0.4021,0.1764,-0.4987,0.4243,-0.4567,-0.2176,-0.3053,0.3439,-0.4777,0.0862,0.3091,0.4607,-0.1699,0.2884,-0.1488,-0.4584,0.2915,0.3158,-0.2454,-0.2068,-0.4174,-0.4533,-0.1665,-0.4523,-0.4547,-0.0254,0.4796,-0.4951,-0.4623,-0.0075,-0.1693,0.1248,0.1986,0.4623,0.2447,0.4733,-0.3934,0.1787,-0.4102,0.2953,0.4350,0.0128,-0.0507,-0.2038,0.3644,-0.3012,-0.2196,0.2931,0.2255,-0.3998,0.4761,-0.4206,0.1501,0.2101,0.4575,-0.3766,-0.2052,0.3541,0.2405,-0.2925,-0.1875,0.4734,0.4544,-0.4342,0.3418,0.2601,-0.1433,-0.2992,0.3522,0.3489,0.1799,0.3828,-0.2028,-0.3226,0.1579,-0.0980,0.1272,-0.3645,0.2434,-0.2874,0.3283,0.4793,-0.0788,-0.1551,-0.2788,0.1877,-0.0317,-0.4461,0.2962,0.2233,-0.4110,0.0308,0.3939,-0.4742,-0.3347,-0.1008,0.2064,0.4856
0.1330,-0.0926,-0.2409,0.4609,0.0664,0.1460,-0.0767,0.2254,0.0663,-0.0024,0.4865,0.4969,0.0097,0.0642,-0.1923,0.2627,0.4404,0.1152,0.1208,0.3656,0.2532,0.0663,0.4426,0.0887,-0.3611,-0.3065,-0.1254,0.2376,-0.3841,0.2459,0.0325,-0.3988,-0.3901,-0.2371,-0.4980,0.4243,0.1462,-0.2648,0.1647,-0.3667,0.3131,0.3994,-0.1944,-0.4548,0.1517,0.1433,0.2561,-0.3170,0.2835,-0.4913,-0.0457,-0.2284,0.3370,-0.3660,0.1955,0.3697,-0.2121,-0.2121,0.0959,-0.2237,0.4008,0.4302,-0.0590,0.1344,0.1420,0.3465,0.4126,0.2912,0.4623,0.0113,0.0866,-0.3844,-0.3392,0.2012,0.3049,-0.0932,0.3929,0.0077,-0.0824,0.3522,-0.3481,0.0077,0.0313,0.4958,0.0619,0.2307,0.1141,-0.0543,-0.3771,-0.3338,0.0305,-0.1269,-0.2239,0.1906,-0.3017,-0.2273,-0.3287,0.2628,0.3842,-0.0495,-0.0922,-0.1174,0.1702,-0.1399,-0.2020,-0.2375,0.0145,-0.4007,0.2989,0.1709,0.2013,-0.1457,-0.1639,0.3644,-0.3021,-0.4463,0.1893,-0.3270,0.0060,0.0985,0.2100,-0.0805,0.3959,-0.0307,0.4689,0.3953,0.3441,-0.1301,0.0682,0.2784,-0.2552,-0.1950,-0.3670,0.4640,-0.2038,0.1087,-0.3461,-0.0409,-0.2492,0.4394,0.4657,0.2451,-0.3925,-0.2433,0.2155,-0.2397,-0.2298,-0.0058,-0.0825,-0.1528
-0.3116,0.3715,-0.0258,0.3675,-0.2819,-0.1834,0.0178,-0.4131,0.4374,-0.4336,0.3428,0.2538,-0.0978,0.0975,0.3476,-0.2933,-0.3337,0.2112,-0.1920,-0.3688,-0.0954,0.3166,-0.3046,0.0953,-0.1578,-0.0884,0.2182,-0.0490,0.2575,0.0636,0.2098,0.2036,-0.0344,0.4503,0.1229,-0.2348,0.4457,-0.0190,0.2656,0.3917,-0.4028,-0.2560,0.3332,0.3242,0.1314,0.2995,0.3066,0.0253,-0.4314,-0.3681,-0.1672,0.4723,-0.1139,0.3933,0.3329,-0.4612,0.1789,-0.3637,0.4398,-0.1126,-0.3853,-0.0039,0.0663,-0.4321,-0.1749,-0.4931,0.2228,-0.1027,-0.2026,0.2408,-0.1759,0.4328,-0.2864,0.1107,0.0790,0.4740,-0.4270,0.0022,-0.0848,0.3574,-0.1480,0.0191,0.0938,-0.0634,-0.1485,-0.3025,-0.1311,0.2886,0.4121,0.1485,-0.0321,-0.1520,0.4301,0.4696,0.0570,-0.1532,0.3112,0.2174,-0.4042,-0.1333,-0.0244,-0.0036,0.4032,-0.1599,0.1938,0.4774,-0.1289,-0.2379,-0.1469,-0.3976,0.3142,-0.1555,0.4883,0.3997,0.4698,-0.2463,-0.1711,0.0378,-0.4630,-0.0004,0.3118,0.3481,0.0777,-0.3177,0.1992,-0.1202,0.0649,0.2585,-0.2900,0.1099,-0.2974,-0.1643,0.1707,0.0247,0.2035,0.0758,0.0223,0.3376,0.2861,-0.2096,0.0686,-0.2838,0.2426,0.4005,0.2834,0.0067,-0.4025,-0.0739,0.4950,-0.0440
0.0557,0.2595,0.0403,0.4505,0.0977,-0.2862,-0.3145,-0.0409,0.0273,0.2127,0.0060,0.4262,-0.0183,0.1030,-0.0570,0.2536,0.2210,-0.0623,-0.3873,0.3050,0.2956,-0.1490,-0.3488,0.3770,-0.2376,0.2620,0.1285,-0.3828,-0.0110,0.1347,-0.1234,-0.1394,0.3051,0.1955,0.0794,0.3714,-0.3473,-0.1357,-0.2149,0.4153,-0.0802,-0.4475,0.3882,0.3116,-0.3682,-0.0507,-0.2921,0.1916,-0.3166,-0.1325,0.1890,-0.4584,0.2595,-0.0974,0.2097,-0.4096,-0.0043,-0.0781,-0.1157,0.4221,0.4990,0.1371,-0.3244,-0.4680,0.0533,-0.3665,0.0723,-0.0133,0.0294,-0.2167,0.4606,0.3436,-0.2475,-0.0505,-0.0848,0.2772,-0.2528,0.4140,0.3901,-0.1262,0.4098,0.2253,0.2915,0.4755,0.2306,0.4662,0.3881,-0.3745,0.3526,-0.4144,0.0571,-0.1114,0.4824,0.1800,0.2039,0.4864,0.2682,-0.2896,0.3457,-0.2356,-0.4266,-0.1534,0.1201,-0.2968,-0.2962,-0.3143,0.2231,0.3693,0.4475,-0.2147,-0.1887,0.2717,0.3684,0.1669,-0.3200,0.1166,-0.2296,0.1688,0.2233,-0.3629,-0.1886,0.0298,-0.3533,0.3982,-0.1969,0.2620,-0.1619,0.4404,-0.3427,0.0440,-0.3075,0.2128,-0.1394,0.4405,0.1907,0.2194,-0.4014,0.1817,0.1684,0.3728,0.4550,-0.1008,-0.2988,0.3414,0.3253,-0.2134,0.0429,-0.3285,-0.0383,0.2827
0.1148,-0.1510,-0.3870,0.4970,-0.1513,0.2177,-0.1017,-0.3929,-0.2988,-0.1955,-0.0603,-0.1686,0.0163,-0.0738,-0.2241,-0.0026,0.2982,-0.4453,0.4860,0.4947,0.5157,0.3150,0.2018,-0.4420,0.1700,-0.3747,0.1083,0.1561,0.1982,0.3787,0.1202,-0.1052,0.0111,0.0449,0.2157,-0.2448,-0.3063,0.3452,0.3332,-0.1490,0.1513,0.4820,0.3639,0.4098,0.0502,0.0967,0.4124,-0.4792,0.3896,-0.3303,0.4831,-0.2038,0.4886,-0.1862,0.1302,0.1036,0.3103,0.1079,-0.2233,0.0636,-0.3183,0.3583,0.0112,-0.4456,-0.3401,-0.3864,0.2332,-0.4052,0.3875,0.1943,-0.1331,0.5057,-0.4639,0.2734,0.3700,0.0360,0.2668,0.2555,-0.0471,-0.2965,-0.3569,-0.0030,0.2190,0.2864,0.1671,0.1921,0.2004,-0.1373,0.0977,0.1642,0.1145,0.4747,0.4453,-0.1308,-0.3213,-0.1171,-0.2244,-0.0990,-0.2244,-0.1559,0.3345,0.4097,-0.3690,0.4776,0.5106,0.0183,-0.4041,0.0557,-0.1579,-0.1905,0.4696,0.1682,-0.0526,-0.3433,0.4007,0.0596,-0.0644,-0.1867,-0.2464,-0.0801,0.2157,0.3615,0.0506,0.4286,-0.3712,0.4329,-0.3032,0.3369,0.1990,-0.3512,-0.0031,0.1369,-0.1696,0.1961,-0.4645,-0.4889,0.2177,0.2865,0.5313,-0.4289,0.4793,-0.1332,0.4617,-0.0352,0.0985,0.0965,0.4474,-0.0614,0.4725,-0.0263
1.0410,0.6711,1.2169,1.0423,1.2468,0.0775,0.3401,0.7404,1.2773,1.2982,-0.4163,0.6570,1.1185,0.3127,0.1686,1.6657,1.0698,1.3638,0.3786,1.3214,1.0035,0.7055,1.1403,1.2198,-0.1591,0.4008,0.8910,0.9686,0.8286,0.3930,0.4785,0.0987,0.0181,0.5507,0.5624,0.8868,1.0219,1.2385,1.0286,1.4101,1.1908,1.0394,0.6657,0.9631,1.1653,0.8757,0.1263,0.6506,0.8456,0.6734,-0.1856,0.8011,0.9282,1.8449,0.5227,1.3972,0.3288,0.8685,0.6802,0.8373,0.9524,0.2799,0.8405,0.6931,-0.0634,0.0186,0.9161,0.7421,0.5495,1.4425,0.8916,0.7283,1.5049,0.5746,0.0863,0.6421,0.6716,-0.0106,1.1689,1.2824,-0.0581,1.4397,0.2445,0.7733,0.7852,0.8340,0.9802,0.1660,0.7829,1.1189,0.4336,0.3927,0.8521,0.8200,1.1026,1.0339,0.9622,0.8676,0.4956,0.6624,1.3507,1.4378,0.2035,1.4474,0.8073,0.2332,0.7561,0.6782,0.4648,1.3203,0.7756,1.1944,0.7640,0.9542,0.8984,0.3203,1.3026,0.6389,1.0369,0.4747,1.1866,0.1652,-0.0360,0.3381,1.2406,0.6994,0.4508,1.0136,0.0749,0.9013,1.5258,0.9069,0.3118,0.8737,0.0571,0.6798,0.7788,0.8440,1.2743,0.5117,0.4154,1.1098,1.6269,0.9092,1.2684,0.4962,1.1617,1.3862,1.0697,0.6358
1.9874,2.0270,2.2592,1.5788,1.4505,0.1171,1.4854,0.5401,2.0419,2.5438,0.8127,1.0692,2.1762,0.5409,1.0974,2.3385,1.7150,2.6811,1.8929,2.0362,1.7155,2.4327,2.9614,1.3369,-0.1361,0.7630,1.3055,2.9765,0.6620,1.4665,1.2721,1.6659,0.4340,0.3131,1.1916,1.5369,3.0492,2.3448,2.6100,2.9238,2.1514,1.8023,1.1897,1.5683,1.7198,2.0109,0.3279,1.2349,1.1958,0.0382,0.2146,2.1889,1.7683,2.1234,1.3213,2.2469,1.5560,2.0329,2.2374,1.9767,0.9246,1.0240,0.8241,2.2347,1.4770,0.1964,1.4381,2.3983,1.5545,2.3051,1.7639,1.7043,1.9920,1.5523,0.3122,0.9005,2.1265,0.4287,1.5233,1.0796,0.7367,1.9630,1.5902,1.2978,1.3557,1.6240,1.9588,1.1282,1.3319,1.7142,1.4789,0.5103,2.0751,1.9023,2.2531,2.0232,1.5440,1.3395,1.1965,0.6415,2.0223,1.9977,0.1841,1.7503,2.2385,0.0354,1.6936,1.4629,1.4746,2.6370,1.6629,2.6308,1.2003,2.2098,1.8091,1.6045,1.7245,1.9479,1.6952,0.4774,2.3219,1.1769,0.3408,2.0646,1.0606,2.1679,1.5777,2.9516,0.1192,0.9085,2.8320,1.6251,1.0488,1.8017,0.3756,2.2667,1.6236,1.3752,2.7332,1.7840,1.9878,2.2546,2.1623,1.5045,2.2994,1.3013,1.0603,2.2553,2.1335,0.6563
3.2889,2.3359,3.9908,1.0954,1.5666,0.7267,2.1195,0.2364,1.7952,3.1452,0.1176,2.2149,2.7030,0.4243,1.6203,2.0939,2.7002,3.6773,1.8674,2.8732,2.7961,4.2364,3.9911,1.7139,0.3672,0.5296,2.1059,2.7533,2.2982,2.5223,2.5819,2.4060,0.5381,0.7043,2.7366,2.1430,3.8331,3.1852,4.0945,3.4832,3.2729,1.7847,3.1716,2.6990,2.6596,2.8137,0.4767,1.3527,1.9893,0.5241,1.1518,3.2319,2.2411,2.5875,2.6466,2.0161,3.3613,3.6744,3.2303,3.0988,2.8591,2.0411,1.7270,3.2496,2.1543,0.9499,1.6123,3.9445,1.3324,3.5388,3.0345,3.2898,3.0206,3.4302,1.0674,1.1562,3.1396,1.3553,2.7074,2.1649,2.0814,2.5801,3.1449,1.9765,1.8811,3.0387,3.1022,1.0146,1.9904,2.9393,2.8456,0.5909,2.8549,2.3371,2.4741,3.4170,2.0357,2.3362,2.2725,3.1494,3.1192,2.8535,1.5091,2.9798,2.8521,0.5134,1.9931,1.6976,1.7416,2.7610,2.6770,3.0678,2.7861,2.7220,2.6791,1.6085,3.4970,2.2813,3.2241,0.2862,2.3463,1.6870,0.5495,3.1875,2.6346,3.7872,2.8612,3.4891,0.6745,0.3899,4.0892,2.4415,0.3978,3.1477,0.4523,2.8004,1.7589,2.0052,3.2921,2.4318,3.0849,3.7324,2.7259,1.3895,2.9590,1.9430,2.3750,3.3535,3.4848,1.5409
3.0768,2.0605,3.4888,1.0320,1.6250,0.3633,2.2480,-0.2773,1.8938,2.2954,0.9652,2.6193,2.9647,1.0882,0.7521,1.8539,2.7903,3.1274,1.8924,1.3536,2.5459,3.3065,2.1433,1.6566,0.6893,0.3279,1.4084,2.8814,1.7953,2.9242,3.0290,0.9279,0.9720,1.1223,3.4824,1.9358,2.4344,2.4351,3.3814,2.8398,2.8720,1.4917,2.2047,1.0162,2.0117,2.6152,0.3293,1.1976,2.5366,1.0603,0.3609,2.7237,2.5768,3.4328,2.0716,0.7790,2.7937,3.3898,2.2893,2.0941,2.6814,2.2135,1.4086,2.9845,1.0144,0.8628,1.2217,2.9058,0.6141,2.6429,2.7458,2.7668,2.9370,2.5948,1.1994,1.2126,2.3342,1.7088,1.2712,1.6796,1.5832,1.6901,2.5850,2.4930,0.8067,2.3921,2.1911,1.6145,2.4036,2.3302,2.2710,0.3798,2.2906,2.1131,2.5574,2.0300,1.6939,2.0506,2.4118,3.0965,2.1675,2.6381,1.7091,2.2657,2.8613,0.5939,2.5481,0.7581,0.4552,1.5912,2.6690,2.5677,2.2510,2.5242,2.1995,2.1053,3.3281,2.7481,3.3282,1.0758,1.6851,1.7240,0.3687,2.3820,2.9038,2.8336,2.1085,2.5876,1.1915,0.7771,2.5183,3.0986,1.0545,2.5307,0.3298,1.9682,1.3924,1.7985,2.2436,2.0043,2.6673,2.7482,2.1123,1.3244,2.1763,2.1338,2.7297,2.5674,2.4228,1.3619
1.3418,0.7406,1.5739,0.6329,0.9430,0.6715,1.0977,0.2103,0.7370,1.5716,0.6099,1.2445,0.9787,0.2387,0.2719,0.7564,0.8350,0.7727,0.8814,0.8343,1.0300,1.6147,0.6117,0.7977,0.1831,0.5490,0.8430,1.5047,1.3056,1.9540,1.3990,0.2956,0.5768,0.4561,1.1167,0.6252,1.4304,0.3593,1.8968,1.1031,1.2548,0.8433,1.2215,0.2267,1.0999,0.7959,0.6020,0.9326,1.5094,1.1998,0.1349,0.5948,1.2079,1.5100,0.4308,0.6592,0.7042,1.0787,1.2418,0.3911,1.0731,0.7216,0.5825,1.2951,0.3658,0.9628,0.2637,1.6220,0.9884,0.8780,1.4401,0.9082,1.6392,1.5927,0.6805,0.5568,0.7870,0.9435,0.2847,0.4349,0.3460,0.5780,1.6626,1.0661,0.7597,0.0160,0.9251,1.4329,1.5329,1.5391,0.8049,0.7133,1.6025,0.9033,1.0161,0.2692,0.5150,1.0612,1.3583,1.2423,1.5099,1.0039,1.4834,1.4116,0.8633,0.2754,0.7077,0.4623,0.7210,1.1724,1.4960,1.1191,0.9017,0.6131,0.3834,0.7156,1.2975,1.4233,0.9486,0.5556,0.6848,0.2322,0.6026,0.4719,1.4144,0.9172,1.4751,0.9404,0.5505,0.1193,1.1842,1.7726,0.3842,0.7663,0.5796,1.3738,0.8870,0.7832,1.2987,1.3003,1.0477,1.3807,1.0131,1.6477,1.2843,1.2008,0.9609,1.2939,1.2220,0.6634
0.3058,-0.1181,1.1362,0.8026,0.9283,0.3966,-0.0954,-0.4112,0.1369,0.2476,-0.0884,0.0347,0.8260,0.4099,0.5558,0.8030,0.6759,0.2435,0.2333,-0.0981,0.8731,0.5417,0.7757,0.6848,-0.0939,0.7853,0.1929,0.9738,0.7301,1.2028,-0.0458,0.1759,0.3015,0.2331,0.6294,0.7150,0.8454,0.4226,0.6236,0.6348,1.0725,-0.1347,0.7297,0.4116,-0.0401,0.7593,-0.1471,-0.1490,0.4705,0.7343,0.1821,0.4101,0.0795,0.4877,-0.0847,0.2647,0.7836,0.9969,0.3203,0.7624,1.0570,0.1225,0.4370,0.4274,0.0436,-0.2376,0.2183,0.3299,0.6950,0.1196,0.9402,-0.1122,0.6938,0.6567,0.7140,0.2982,0.1170,1.0277,0.4474,0.3511,0.7853,0.4980,0.2822,0.2491,-0.1277,-0.1594,0.1876,0.9902,0.0587,0.2150,0.6810,0.5943,0.1099,0.2238,0.4562,0.4883,0.4128,0.3961,0.9869,0.6220,0.5362,0.0351,0.9755,0.2958,0.6280,0.3625,0.1519,0.3013,-0.0412,0.8159,0.6844,0.7462,0.7481,0.4195,0.3148,0.6056,0.9185,0.7905,0.1068,0.3644,0.2721,0.7870,-0.3543,0.1453,0.4892,0.7360,0.7777,0.3460,0.7771,0.2537,0.4518,0.5224,0.5562,0.7813,0.2537,0.3101,0.8267,0.6834,0.1080,0.5953,0.6320,0.6795,0.5926,0.7307,0.5499,0.3757,0.5863,0.2539,0.2307,-0.1481
0.6566,-0.3513,-0.0741,-0.2633,0.3858,-0.4009,-0.2413,0.0471,0.5115,0.6565,0.2404,0.5008,0.5233,0.0152,0.2901,-0.2846,0.6301,0.1222,0.2897,0.3351,0.0984,0.0190,0.4939,0.2213,-0.0216,-0.1948,0.0821,0.0741,0.4399,-0.1962,-0.3039,-0.0329,0.2729,0.3381,0.0556,0.1567,0.5938,-0.3440,0.6413,0.0563,0.4359,0.3079,0.0196,0.5163,-0.0023,0.1740,0.0862,0.3190,-0.0701,-0.3477,0.1904,0.0004,-0.3309,0.4078,-0.0476,-0.1782,0.3779,-0.0647,0.4539,-0.2591,0.2195,0.0379,0.6385,0.3556,-0.3617,0.4309,0.5545,0.5362,-0.3642,-0.1290,-0.1559,0.2533,-0.0528,0.1604,0.1568,0.4171,-0.1180,0.4000,0.4274,0.1747,0.2086,-0.1578,-0.1512,-0.1773,0.2971,-0.2402,0.0887,-0.0260,0.3800,0.1451,0.0747,-0.2071,0.3518,0.5533,-0.1214,-0.2842,-0.4706,-0.3318,-0.2274,0.1117,0.1543,0.1932,0.0640,-0.2799,0.2519,0.5423,0.1184,-0.1204,-0.1207,0.1433,0.0611,-0.0876,0.0865,-0.2071,0.3400,-0.3140,0.3613,-0.1039,0.1343,-0.3882,0.3079,0.2312,-0.1745,0.0174,0.5557,0.1306,0.5285,0.6155,0.3908,0.0290,0.5921,-0.0755,0.1374,0.2162,0.4880,0.1220,0.3351,0.5700,0.3793,0.0040,0.1932,0.5571,0.4379,-0.3014,0.3356,0.5686,-0.1980,-0.0612,0.6970,0.0180
-0.1168,0.4147,0.4764,-0.1190,-0.0427,0.3061,-0.3021,0.2053,-0.3316,0.5454,0.4316,-0.1996,0.1917,0.4143,0.2758,0.3286,0.2363,-0.3730,-0.0179,-0.2254,0.4580,0.3274,0.5631,0.3138,0.3882,0.1848,-0.1158,-0.2206,-0.0905,0.3926,0.0597,-0.3838,-0.1782,-0.1476,-0.0463,-0.2808,-0.0313,0.2157,-0.1447,0.4404,0.4803,0.2266,0.3806,-0.3352,-0.4089,-0.0082,-0.2297,0.1159,0.2232,0.2103,-0.0675,0.4099,0.3203,0.4264,-0.2694,0.5074,-0.3644,0.4793,-0.1511,0.3994,0.5249,0.4539,0.0983,0.0250,0.1392,0.1213,0.4439,-0.2758,-0.1964,-0.3366,0.1284,0.1165,0.0841,0.2398,0.1457,0.4529,-0.1327,0.4367,-0.1790,0.4080,-0.0556,0.2263,0.4979,-0.1624,-0.2324,0.4602,0.4484,0.4732,-0.0930,0.1640,0.2323,-0.2811,0.4382,-0.3509,0.4647,-0.0329,0.3210,0.2746,0.2719,-0.3592,-0.1678,-0.1344,0.0652,0.3691,0.1550,0.2122,0.0936,0.1414,0.0476,-0.2750,-0.2096,0.4846,0.1428,0.2840,-0.2220,-0.3932,0.2539,0.0636,0.2758,-0.2401,0.0948,0.0051,-0.1046,0.4288,0.1729,-0.3293,0.4892,0.0631,-0.2147,0.3787,-0.2652,0.1189,-0.3917,0.4057,-0.2931,0.3141,-0.1573,0.0629,-0.2895,0.4359,0.0400,-0.1125,0.1532,0.4256,0.4641,0.3594,0.4423,-0.2575,-0.1815,0.0035
0.2779,0.1112,-0.2742,0.2519,0.5129,0.4183,0.4977,0.5485,-0.0799,0.3458,0.3898,0.4912,0.4246,-0.0745,0.3010,0.4973,-0.3086,0.2824,-0.3036,0.3851,0.0146,0.2640,-0.1091,0.0616,-0.1133,0.5496,0.2141,0.4164,-0.3167,0.4480,0.2574,-0.1840,-0.3120,-0.2894,0.2906,0.3982,0.4476,-0.3739,0.3558,0.3016,0.2513,-0.1365,0.0466,0.3582,-0.4355,-0.3100,0.4677,0.2707,0.4670,-0.0247,0.2782,0.3566,0.4322,0.0941,0.6190,0.2398,-0.2530,-0.2731,-0.2426,0.3022,-0.3124,0.3593,0.3339,-0.0827,0.2645,0.0782,0.3773,0.4457,-0.0526,-0.2318,0.4732,-0.0113,0.4890,0.1675,-0.2507,-0.3471,0.1557,0.5401,0.0830,-0.0997,-0.1777,0.4225,0.2263,0.1683,0.4236,0.2850,0.3568,0.2297,-0.1264,-0.3528,0.2748,-0.2836,0.4706,0.3308,0.1848,-0.3098,0.5904,0.4057,0.5202,0.3824,0.1546,0.3951,0.0465,0.2294,0.2702,-0.3525,0.0616,0.1146,-0.1146,-0.2660,-0.0887,0.1237,0.3578,0.4885,0.4960,-0.0020,0.1117,0.4798,-0.1514,-0.3580,0.5623,-0.4382,0.1803,0.2346,-0.2774,0.0907,0.0685,-0.2604,0.5284,-0.2745,-0.0824,-0.1095,0.2596,-0.3708,0.1821,0.0848,0.3645,0.3281,0.4488,-0.3073,0.3749,0.3242,-0.3818,0.3598,0.2140,-0.2854,0.2096,0.4850,-0.2405,-0.3730
0.5810,0.2001,-0.1427,0.1517,0.1351,0.0828,-0.2128,0.6007,0.0816,-0.0722,-0.2034,-0.1175,-0.3237,0.2834,0.2183,-0.3501,-0.1226,0.0542,0.3971,0.3195,-0.0544,-0.2306,0.1302,-0.0509,0.3369,0.4164,-0.3904,0.4623,-0.1626,0.0532,-0.0885,0.4262,0.5591,-0.2843,0.6197,-0.0313,0.1389,0.2215,-0.2764,0.3603,-0.1712,0.3306,0.0143,-0.3481,0.1542,0.5357,0.1206,0.4972,0.3771,-0.1651,-0.0014,0.1453,-0.1930,-0.3866,-0.2480,-0.2711,0.4645,0.0813,-0.1830,0.4319,-0.0305,0.0180,0.4259,-0.1080,-0.1792,0.4000,-0.3325,0.2177,-0.2982,-0.2748,0.3447,0.1654,-0.3256,-0.2443,-0.2655,-0.0884,-0.0446,0.5544,-0.1235,-0.1468,0.3316,-0.2391,0.1474,-0.4861,0.1125,0.0549,0.1769,0.2083,0.6101,0.3687,0.4960,0.4898,0.4959,-0.0226,-0.3112,-0.2961,0.3167,0.2006,-0.1859,0.1190,0.0670,0.2703,-0.2761,-0.3259,0.2779,-0.4438,0.3240,0.4148,-0.4092,0.4443,0.2880,-0.2652,-0.4607,0.3547,0.5481,0.5532,0.4787,-0.1412,-0.4345,0.2200,-0.1831,0.2315,-0.2982,0.4218,-0.0575,-0.3310,-0.0329,-0.2244,-0.0693,0.0158,0.1038,-0.0266,-0.0221,-0.3887,0.3689,-0.4192,-0.0191,-0.3883,-0.0457,0.6154,0.0841,-0.1797,0.3646,0.2583,0.4944,-0.0958,0.5605,-0.3565,0.2614,0.4191
0.5880,-0.1001,0.2228,0.3921,-0.0564,0.4709,0.0923,0.2929,-0.1804,0.1441,0.2664,0.2706,-0.0858,-0.3520,-0.1833,0.2127,-0.2748,0.0695,-0.2566,0.0182,0.3009,0.0550,-0.0315,0.1535,0.4179,0.3936,0.5088,0.3756,0.1803,0.3201,0.2362,0.4234,-0.1963,0.2270,0.2348,0.3316,0.1423,-0.0978,-0.1701,0.3907,0.0066,-0.2711,0.0144,-0.3247,0.0682,-0.0127,0.1310,0.1212,-0.3340,0.3584,-0.3157,-0.0558,0.2447,-0.3004,0.4333,0.2973,-0.3158,0.4443,-0.1423,0.4040,-0.3155,-0.2662,-0.2020,0.2524,0.0837,0.0614,0.6313,-0.1415,0.3715,-0.3222,-0.3727,0.0761,0.1180,-0.1437,0.4348,0.2750,-0.3332,0.1898,-0.2381,-0.0251,0.4377,0.5683,0.5004,0.3902,0.3911,0.1758,-0.0599,0.2295,0.2285,0.3326,0.3000,-0.0784,0.5722,-0.2863,0.0458,0.5953,0.1106,0.5779,0.5887,0.1268,0.1073,0.2683,0.2672,-0.1566,-0.3665,0.0112,0.0570,0.1143,-0.4696,-0.0144,0.1531,-0.3259,0.4429,-0.4169,-0.1040,-0.0609,-0.1929,0.3332,0.1974,0.1086,0.2201,0.5107,-0.0102,-0.1029,0.1749,0.0745,-0.3272,0.2841,-0.1946,0.3417,0.4141,0.2047,-0.1486,0.5076,0.3707,-0.2359,0.2130,-0.2705,-0.1391,0.2066,0.4051,0.0932,-0.0735,0.2270,-0.3458,-0.0584,-0.0519,-0.4242,-0.0781,-0.2863
0.1812,0.2689,0.4750,0.0290,0.2363,-0.3484,-0.1806,0.6166,-0.3983,-0.0862,0.0878,0.0588,-0.4015,-0.0196,0.1909,0.0355,0.3310,0.3119,0.1260,0.0705,-0.1072,-0.1450,-0.0091,0.5278,0.4505,0.0437,0.1636,0.4166,0.4839,-0.1267,-0.4183,0.1874,0.3463,-0.0326,0.2053,0.2499,0.3637,0.3127,-0.1549,-0.1972,0.0516,-0.2809,0.1077,0.2131,-0.3093,0.1245,-0.1810,-0.1259,-0.3507,-0.3826,0.6075,-0.0307,0.1471,0.0147,0.5252,0.1905,0.4906,-0.4658,0.1140,-0.0922,-0.3288,0.2467,-0.3175,-0.2743,-0.1893,-0.0914,0.2204,0.0198,-0.2207,0.4947,0.0210,0.1172,0.2201,-0.1291,0.2571,-0.0688,0.3674,0.4939,-0.2604,-0.1008,0.4732,-0.3733,0.1686,0.2816,0.0856,-0.0027,0.6468,0.1099,0.1223,0.0227,0.3190,-0.1899,0.0496,0.3496,0.5012,-0.1949,0.5348,0.0610,0.1430,0.3878,-0.2084,-0.3279,0.1070,0.4397,0.3389,0.3564,0.2756,-0.1213,0.1924,0.4309,0.4660,-0.4078,0.1321,-0.3267,-0.4228,-0.3274,-0.3466,0.2321,-0.3280,0.0282,0.4025,0.0271,0.2588,-0.4146,0.3279,0.0540,-0.3306,-0.1673,0.0693,-0.2839,0.0780,0.4925,-0.2354,-0.4328,0.2834,-0.3455,-0.2169,0.1986,-0.2349,0.3164,-0.3135,0.5089,-0.3611,0.4964,0.0340,0.0663,0.3903,0.3625,0.3407,-0.2189
-0.4705,0.3801,0.4554,0.3564,-0.3266,0.0466,0.2636,0.2176,0.2495,0.0815,0.4040,0.2896,-0.3794,-0.0435,0.0551,0.3964,0.1056,0.4272,-0.1036,-0.2354,0.5210,-0.0505,-0.1894,0.4463,0.3810,-0.2235,-0.0541,0.4910,0.2565,-0.2949,-0.1089,-0.0891,0.4686,0.3750,0.2552,0.2950,0.3452,0.4495,-0.4885,0.1550,0.0866,-0.0327,0.1485,-0.1367,0.1938,0.3838,-0.1860,-0.1396,0.2369,0.4599,0.4202,-0.2747,0.2520,0.0677,-0.2416,-0.1828,0.1181,-0.1959,0.1198,0.2116,0.1745,-0.3803,0.2352,0.3430,-0.3157,-0.1375,0.3952,-0.0743,0.0567,-0.1033,0.0803,0.4239,-0.1610,-0.2873,-0.4154,-0.3175,0.3902,0.4254,-0.1485,0.0666,-0.0328,0.0303,0.1986,0.1658,-0.0309,0.1240,0.1171,-0.2971,-0.1884,-0.3167,0.1619,-0.4907,-0.4164,0.3662,-0.4735,-0.3622,-0.4015,-0.1022,0.2992,0.4257,0.3190,0.4939,0.3369,0.4491,-0.2425,0.2318,0.2898,0.1974,-0.4220,0.0691,-0.4702,0.3070,0.4107,0.3940,0.1012,-0.2665,0.4899,0.4044,-0.0574,0.3150,-0.0455,-0.4417,0.2235,-0.3114,-0.3939,-0.2644,0.4257,-0.2457,0.4316,0.0963,-0.0730,-0.0657,-0.0210,-0.4745,0.0179,0.3009,0.3684,-0.1702,0.3709,0.0733,-0.0011,-0.4259,0.1276,0.4076,-0.2806,-0.0842,0.3200,-0.0517,-0.2085,-0.1446
0.2235,-0.3539,-0.0976,-0.1166,0.7212,-0.1080,0.3566,0.2436,0.2709,0.5863,0.4122,0.1835,0.1237,-0.3176,-0.3096,0.6334,0.4989,0.1381,-0.1710,-0.1740,-0.1551,0.5992,0.3811,-0.0158,-0.3833,0.3751,0.0836,-0.1524,-0.3121,-0.2466,0.0119,0.6369,0.4090,0.1904,-0.2332,0.6126,0.2765,0.3438,0.3401,-0.3153,0.0543,0.4824,-0.1424,-0.1684,0.0725,-0.3121,-0.1481,0.3697,-0.0164,0.5107,0.3140,0.1423,-0.3160,-0.1148,-0.1409,0.5168,-0.1096,0.3224,-0.3616,-0.3833,0.3471,0.0959,0.4338,0.2791,0.2767,-0.4282,-0.0188,0.6511,0.0269,-0.2665,-0.0088,0.3673,0.1411,0.4265,-0.1646,0.2263,-0.3433,0.0339,0.2441,0.4318,0.4044,-0.3665,0.5889,-0.3844,0.3073,0.0401,0.2568,0.0643,-0.0222,0.2700,-0.0299,0.0311,-0.3442,0.6267,-0.1138,-0.3188,0.2676,0.5577,-0.3326,0.5399,0.1301,-0.2769,0.3982,0.2510,-0.2766,0.1103,0.5681,0.1706,0.1010,0.0699,0.5265,0.2768,0.1476,0.2243,-0.1520,0.2564,0.7084,-0.1110,0.0997,-0.4138,0.3575,0.2969,-0.2632,0.6854,0.4720,0.5341,0.2211,0.0039,0.4681,0.0181,0.2203,0.1435,0.0358,0.6203,-0.3945,0.1092,-0.3142,-0.2948,0.5893,0.4141,0.3570,0.3204,0.4326,0.1322,-0.2097,0.0164,0.3522,-0.2563,-0.3181,-0.2459
-0.1707,-0.1436,0.5490,0.2081,0.7287,0.4173,0.1188,0.4786,-0.0604,-0.2601,0.4947,-0.4367,0.6483,-0.3690,-0.2651,0.4337,-0.2828,0.5033,-0.2044,-0.2256,0.3003,0.6187,0.3922,0.5639,0.3940,0.2354,-0.2222,-0.2316,0.3842,-0.0713,0.3820,0.0980,0.6797,0.2976,0.1722,0.6491,-0.0986,0.5985,-0.2838,-0.0779,0.5308,0.3516,0.1437,0.5383,0.1241,0.4737,-0.3730,0.1403,0.3502,0.2868,0.3487,0.7447,-0.0337,-0.1951,0.0176,0.2646,-0.0285,0.4638,0.3975,-0.0889,-0.1346,-0.3609,0.0596,-0.1801,0.3454,0.2323,-0.0009,0.0333,0.2696,0.4737,0.2843,-0.0995,0.0241,-0.1961,0.5942,-0.1170,-0.0472,-0.2614,0.1576,0.4645,-0.2620,-0.1971,-0.0654,-0.0828,0.1672,-0.0911,0.3603,0.4679,-0.0356,0.2890,0.4807,-0.4357,0.0542,0.6738,0.0807,-0.2923,0.2165,-0.0053,0.4934,-0.3501,0.1890,0.0806,0.2011,0.4605,0.4979,-0.0469,0.3428,0.7344,0.4185,-0.0028,0.3657,-0.4399,0.5987,0.2749,0.6043,0.2382,0.3050,-0.1002,0.6820,-0.0536,0.2232,0.4729,-0.3011,-0.0139,-0.1249,0.0924,0.3166,0.4191,0.4256,0.4202,-0.2704,0.1988,-0.2104,0.7005,-0.1011,-0.0000,-0.1122,-0.2470,0.3496,0.6981,0.0280,0.4836,-0.1278,-0.3601,0.4312,0.0408,0.1962,-0.0199,-0.4082,-0.3354
0.5389,-0.3089,0.3685,0.1734,-0.0733,-0.4011,0.1518,-0.1264,0.5196,0.1848,-0.1118,0.0722,0.1881,0.3475,-0.4138,-0.3411,0.4250,0.1998,-0.2266,0.4716,0.4716,-0.3320,0.4789,-0.3446,0.3161,-0.0099,-0.4310,0.2546,-0.2392,-0.1989,-0.1869,0.3041,0.1619,0.4980,0.5211,-0.0218,0.4848,0.4146,-0.0928,-0.2416,0.1677,0.4396,0.2471,0.0673,0.0326,0.4395,-0.1019,-0.0860,-0.2763,0.4863,0.2302,0.2586,0.0758,0.3437,-0.0959,0.5307,0.0247,-0.0377,0.2515,0.0008,0.5566,0.2509,0.3859,-0.1461,0.3506,0.4609,0.3881,-0.2064,-0.4111,0.3379,0.4388,0.1145,0.2901,-0.4852,-0.1789,-0.1748,0.5439,-0.1291,-0.1502,0.0977,-0.1334,-0.4109,-0.3630,0.4145,0.2402,0.2005,-0.0769,0.5079,-0.2817,0.5012,0.2479,0.0398,0.0619,0.4705,0.0388,-0.0240,-0.3456,0.1914,0.3745,0.0361,0.3236,-0.1523,0.1450,0.0853,-0.4714,-0.4361,-0.2197,0.0322,0.0997,-0.3824,0.3352,0.1217,0.5054,-0.3805,0.1424,0.3397,0.0762,-0.3527,-0.3540,-0.3062,0.3263,0.2324,0.2858,-0.1424,0.0760,0.2077,0.1372,0.1755,0.2721,0.0051,0.4100,0.3173,0.1736,-0.3087,-0.1426,-0.4572,-0.1613,0.0777,-0.3926,0.5627,0.5223,0.0737,0.1455,0.0901,-0.3169,0.1510,-0.3460,0.3481,-0.4032,0.0467
-0.3686,-0.0229,-0.1198,0.2198,-0.3080,0.0553,-0.2060,0.1820,-0.1019,-0.4569,0.0692,0.1274,-0.3958,-0.0123,-0.0929,0.4592,0.2886,-0.0380,0.4103,-0.0814,0.1095,0.2845,0.1909,-0.2075,0.4029,0.3719,0.3827,-0.0887,-0.4389,-0.1320,-0.0121,-0.0094,-0.1848,0.4681,-0.2556,-0.0949,0.4889,0.0923,-0.0875,0.3770,-0.1828,-0.3857,0.1309,-0.2099,0.2806,-0.0483,-0.3006,0.4004,-0.4656,-0.0144,0.0102,0.4401,0.2508,0.2853,0.0891,-0.3670,-0.1705,0.2775,0.1457,0.4208,-0.0565,0.2718,0.3587,-0.4971,0.2929,-0.0293,0.1242,-0.0700,0.0579,0.2853,0.4533,0.2781,0.0830,-0.1709,-0.0221,0.0490,0.4270,-0.1191,-0.1473,0.4854,-0.2027,-0.2554,0.2416,-0.3311,-0.4804,-0.0041,0.3808,-0.0550,-0.4115,-0.2478,-0.3998,-0.0202,0.4847,0.1226,0.0907,-0.4062,-0.2267,-0.2960,0.1160,0.2062,-0.2772,0.1139,-0.0096,0.0049,0.2593,0.4195,0.2964,-0.2543,-0.0250,0.2618,0.0640,-0.1349,-0.4500,-0.0033,-0.1794,0.0110,-0.4900,0.0553,0.2579,0.3223,0.4953,-0.4974,0.3754,-0.1797,0.3212,-0.0630,0.0919,-0.3574,-0.0466,-0.4791,0.3186,0.3374,0.4743,0.3409,-0.1074,-0.4328,0.4566,-0.2651,-0.0259,0.2463,0.2610,0.4917,0.2630,0.2654,0.0685,-0.2238,-0.3796,0.4784,0.3913,-0.0002
-0.1208,0.2811,0.2192,-0.1357,-0.2034,-0.3175,0.3851,-0.2547,0.1928,-0.2820,0.2944,-0.2034,-0.4865,0.2738,0.3150,0.4139,-0.4483,-0.2736,0.2467,0.0751,0.3101,0.0581,-0.3125,0.4282,-0.3051,-0.3606,0.2102,0.1558,-0.0664,-0.4710,0.3251,-0.4692,0.0359,-0.4226,-0.2027,0.4998,0.0592,0.4787,0.0391,0.1025,-0.2306,-0.0016,-0.2579,-0.3556,-0.0081,-0.2346,-0.2709,0.4160,0.4043,-0.0920,-0.0259,0.2883,-0.4158,0.1033,-0.0470,0.2799,0.2342,0.4931,0.0461,-0.2408,-0.2987,0.1551,-0.1558,0.0959,0.0179,0.0603,-0.2443,-0.2390,-0.3819,-0.2344,0.2505,-0.3686,0.2194,-0.0921,0.2105,-0.0337,-0.4402,0.3576,0.4920,0.2508,-0.1476,0.4436,-0.3397,-0.3158,0.3142,0.3414,0.4584,-0.2792,-0.3964,-0.4803,-0.1946,0.1210,0.3716,-0.4921,0.2632,0.4554,-0.0961,-0.0346,0.1631,-0.0136,0.0435,-0.4635,0.3582,-0.0063,0.4681,0.3883,-0.1826,0.3000,-0.1224,-0.0687,-0.3103,-0.1986,-0.4441,0.4703,-0.0310,-0.4145,0.4648,0.3644,-0.1543,0.0532,0.2842,0.1258,-0.0888,0.4036,-0.0537,-0.1452,0.1373,-0.3666,-0.0317,-0.0175,-0.4532,-0.0083,-0.4410,0.3762,0.3640,-0.3605,-0.4281,-0.3494,0.4953,-0.4166,0.0389,0.3235,0.3523,0.0340,0.0398,0.4884,0.1078,-0.4865,0.2402,0.4530
-0.1820,-0.4314,-0.3547,-0.1296,0.2365,-0.0752,-0.2014,-0.4650,-0.0160,0.0777,0.1325,0.3812,0.2581,-0.0219,-0.3203,0.4624,-0.3092,-0.3394,0.1063,-0.0652,-0.4494,-0.3429,0.1305,-0.2803,0.4331,-0.0921,-0.0979,0.0463,-0.3604,-0.3139,0.4682,0.0194,0.3134,-0.3688,0.4553,-0.1089,-0.0614,-0.0554,-0.2271,0.2031,0.4782,0.0965,-0.0819,-0.1766,0.3611,-0.2677,-0.0533,0.1903,0.0658,-0.3502,0.0281,0.2670,0.2131,-0.0443,-0.0936,-0.3633,-0.3065,0.1021,0.1472,0.1972,-0.0718,-0.4971,-0.1027,0.1179,0.3369,0.4653,0.0588,0.2968,-0.3532,-0.2558,-0.4977,-0.3795,0.3216,-0.0252,0.2581,-0.3513,0.0197,-0.1755,-0.4279,-0.3223,0.2857,0.3925,0.4799,-0.4704,0.2815,0.0512,-0.1296,0.4091,0.2866,0.3970,0.2126,-0.2152,-0.1281,0.3191,0.1836,-0.0126,-0.1893,-0.4125,0.3759,0.0227,-0.1303,0.2907,0.2048,-0.1116,0.2350,-0.4196,0.2542,-0.2408,-0.0140,-0.0850,-0.2851,-0.1994,0.2438,0.4384,0.0293,-0.4060,-0.0536,0.1811,0.1126,0.2079,-0.3715,0.3459,0.2800,-0.4741,0.0844,0.3143,-0.3083,-0.2976,-0.3982,-0.2942,0.2344,-0.2254,0.3917,-0.3707,0.4368,-0.3353,0.0262,0.0177,-0.3257,-0.4078,0.4705,-0.2814,-0.0070,0.1848,0.2413,-0.3817,-0.1178,-0.1093,-0.0771,-0.2013
0.0342,-0.2188,0.2001,-0.3757,0.1828,0.2980,-0.3967,0.3892,-0.2458,0.2670,-0.1454,-0.0731,-0.4075,-0.0661,0.3317,-0.4631,0.1451,0.0877,-0.3164,-0.2436,-0.2642,-0.3175,-0.0838,0.2660,0.2597,0.4089,0.1491,0.0252,-0.4626,-0.4564,-0.0460,-0.3601,0.3107,0.4704,-0.2267,-0.3211,0.1626,-0.2208,0.2868,-0.0113,0.2123,-0.2861,-0.2487,0.4720,0.0732,-0.1470,0.2175,-0.3683,-0.0904,-0.4703,-0.3671,-0.4467,-0.1987,-0.1181,-0.2486,-0.1176,0.3130,0.1975,0.0186,-0.2276,-0.3124,-0.0249,-0.3923,0.0707,0.3954,-0.0059,-0.0997,0.3426,0.3022,-0.1588,0.1360,-0.1177,-0.1911,-0.2185,0.3696,-0.4209,0.4098,0.3336,0.2758,0.4071,-0.4516,-0.0920,0.1658,0.0382,0.1788,-0.1474,-0.0173,0.1261,-0.1724,-0.3086,0.0163,0.4950,-0.1555,0.3562,0.0754,-0.0672,0.1503,-0.0280,-0.3234,0.2922,-0.2294,-0.2909,-0.4176,-0.1944,-0.4075,0.4947,0.0473,0.0970,0.1344,0.1617,0.2764,-0.1849,-0.4039,-0.0833,-0.1972,0.0234,-0.4522,0.2413,-0.2537,0.3975,0.1049,0.3912,0.4842,-0.2313,-0.1903,0.1557,-0.4739,-0.1184,0.4638,0.2050,-0.2207,-0.0997,0.2382,0.0128,0.1371,-0.0229,0.2014,0.4867,-0.0473,-0.4135,-0.2576,0.0860,0.3455,0.3083,-0.3842,-0.3684,0.0456,-0.3411,-0.0334,-0.0732
0.0944,0.4024,0.1286,-0.4592,0.2511,-0.2329,0.3315,0.1991,0.2118,-0.0336,0.1443,-0.2557,0.3779,-0.0683,-0.4596,0.4614,0.3751,-0.4088,0.4048,0.0807,-0.4084,-0.2236,0.2355,0.1384,-0.1187,0.2735,-0.0707,-0.3849,0.4073,-0.2989,-0.1466,-0.4198,0.0698,0.1985,0.4066,0.4378,0.3619,0.3468,0.4182,-0.4589,0.1152,0.4265,0.3649,0.2957,-0.0361,-0.1764,-0.2462,0.0964,-0.0708,-0.2617,-0.3565,0.2688,0.0407,0.3450,0.3942,-0.3793,0.3507,0.4305,-0.4996,0.3147,-0.0901,0.4403,0.0670,-0.4811,-0.3342,-0.4536,0.2365,-0.3155,0.1968,-0.3087,0.4165,0.0387,0.2908,-0.2462,0.1818,-0.2997,-0.3204,0.0135,0.0031,-0.1897,0.1338,-0.3996,-0.2168,0.3000,-0.0261,0.1272,-0.3649,0.0470,-0.4684,-0.0212,0.3043,-0.4809,-0.0941,0.1308,-0.4854,-0.0434,0.2608,-0.1863,-0.4534,-0.2401,0.1141,-0.1016,-0.2599,0.4009,-0.3500,0.1415,-0.4081,0.2044,0.1548,0.1457,0.0172,-0.4486,-0.4578,0.4788,-0.4765,0.2372,0.2135,-0.1293,-0.4422,0.2828,0.0780,-0.4772,0.4506,0.4077,-0.3264,-0.4505,-0.0775,0.1314,0.2726,0.3957,-0.3106,0.2175,0.1428,-0.4099,0.3285,0.1196,-0.3484,-0.3462,-0.1093,0.1064,-0.0769,-0.3894,-0.3550,0.2948,-0.2936,-0.4260,-0.4966,0.1544,-0.2642,0.4531
-0.2498,0.3970,-0.2585,-0.1453,0.1111,0.1645,-0.0449,0.2781,-0.2712,0.3470,0.3141,-0.4764,-0.3169,-0.4320,-0.1158,-0.3966,-0.4360,0.3622,-0.0394,0.0860,0.3650,-0.3748,-0.1979,-0.3477,-0.2851,-0.4136,0.2693,-0.4823,0.2945,-0.4692,-0.3196,-0.4225,0.3567,-0.4290,0.2825,-0.3947,0.4384,0.0236,0.2142,0.0985,0.1771,-0.4649,-0.4389,0.1737,-0.1927,0.0684,-0.2058,-0.4627,-0.1872,0.3885,-0.2006,-0.0645,0.4156,-0.0842,0.2543,-0.0017,0.1941,0.3586,-0.4761,-0.3056,-0.3972,0.4412,0.4546,-0.2893,0.2713,-0.2427,-0.3871,0.2731,-0.4144,-0.0388,-0.3104,0.2017,0.0109,-0.1693,0.2478,-0.4802,-0.3024,-0.2485,-0.1088,-0.3919,-0.0071,0.3583,0.0118,-0.2037,0.1314,0.4744,0.3425,0.3024,-0.0431,0.4614,0.2070,0.3912,-0.2400,-0.3120,0.2009,0.4303,0.3723,0.3980,-0.2863,-0.2857,-0.3321,-0.4075,0.1450,0.1769,0.3570,-0.0940,-0.0675,0.0462,-0.4100,-0.3291,-0.1594,0.1875,0.0480,0.1027,0.3507,-0.0922,0.2453,-0.3558,-0.3111,0.0570,-0.2414,-0.4781,-0.4527,0.0553,0.4288,-0.3468,-0.0144,0.1762,0.0157,-0.3862,-0.3419,-0.0126,0.4585,0.1712,0.2274,0.0653,0.0279,0.2536,0.2039,0.4176,-0.0548,-0.4631,-0.3191,0.1587,-0.4644,-0.4367,-0.1063,0.3262,-0.3363,0.1975
0.1112,-0.0295,-0.2979,-0.1495,-0.2682,-0.0951,-0.3733,0.2802,-0.4739,0.3785,-0.2900,-0.0373,-0.2208,-0.4477,-0.1721,0.4082,0.2455,-0.2143,0.4121,0.0999,-0.2056,0.0689,-0.4181,-0.0585,-0.2011,-0.3968,0.3540,0.2698,0.0162,0.2465,0.2991,-0.1410,-0.1007,0.2486,-0.2225,-0.0663,-0.2188,-0.2485,0.2047,-0.2924,-0.4138,-0.3504,0.0120,0.0696,-0.4405,-0.4426,0.1534,0.1810,0.1765,-0.0133,0.3777,0.3495,-0.0237,-0.4360,-0.4572,0.2593,-0.3876,-0.0930,-0.3797,0.4505,0.3788,-0.4263,0.0677,-0.0382,-0.2851,0.3701,-0.2056,0.3590,0.4164,0.0415,-0.2801,-0.3064,-0.4745,0.2778,-0.0181,0.2581,0.4117,-0.2893,-0.4130,-0.1425,-0.1513,-0.3164,0.0189,-0.0432,-0.3145,0.3813,-0.2106,0.2657,-0.3444,-0.1649,0.2063,0.0695,-0.0459,-0.3745,0.2170,-0.1228,-0.0081,0.2548,-0.3689,0.1364,0.2958,0.0791,0.3214,-0.0415,0.4230,0.2244,0.3151,0.1016,-0.3077,0.4514,-0.4727,-0.1102,-0.3280,0.0850,0.3917,-0.4859,0.4054,0.2384,-0.1872,0.0853,0.0694,-0.0792,0.1921,0.3931,0.2562,-0.4204,0.2260,0.1146,-0.0172,0.4781,-0.4298,0.1586,0.0919,-0.1252,0.0953,0.2040,0.0572,-0.0460,0.0996,0.0271,0.3332,-0.4007,-0.2609,-0.2765,0.4848,0.4238,0.2734,0.2643,0.1260,0.2578
-0.0169,0.2882,0.2909,0.2515,0.2478,0.2141,-0.3135,0.0012,-0.1562,-0.3156,0.4941,0.4230,-0.1967,-0.4333,-0.3710,0.3456,0.0685,0.4975,0.0355,-0.0543,0.0061,0.0209,-0.4263,-0.1389,-0.0298,0.1141,0.2228,-0.3398,0.1790,-0.0613,0.4319,0.3531,0.0904,-0.4998,-0.0997,0.4640,0.1052,-0.2730,-0.2426,0.0459,-0.0052,0.4960,-0.0228,-0.0060,0.3880,-0.4125,-0.3248,-0.3230,-0.0103,0.4131,0.2025,-0.0657,-0.2641,0.4777,-0.1560,-0.4493,-0.3936,-0.0995,0.2943,-0.0849,-0.2536,0.0288,0.3035,0.3153,0.2960,0.2112,-0.3124,-0.3206,0.0381,-0.3180,-0.1249,-0.2245,0.0047,0.4948,0.4242,-0.3674,0.3074,-0.0915,0.1065,0.1455,0.1458,0.4145,0.4615,-0.4977,-0.0400,0.0445,0.3490,0.0543,0.3429,-0.3834,-0.1396,0.0252,0.3666,0.3028,-0.3854,0.0170,0.1428,-0.2473,0.0832,0.0007,-0.3002,-0.4733,0.2241,-0.3539,0.3859,-0.0199,0.2346,0.1424,0.3712,-0.3312,-0.1490,-0.2077,-0.4717,0.0386,-0.3099,-0.1457,0.4653,-0.2788,0.2907,0.3750,0.1846,0.2680,0.2746,-0.0148,0.2858,-0.2701,-0.3126,0.0623,-0.1003,0.1785,-0.2469,-0.2379,-0.3368,-0.0328,0.4449,-0.4776,-0.1472,-0.2823,0.1144,0.2597,-0.4445,0.3501,0.2179,-0.2687,-0.2376,0.3813,0.2675,0.4947,-0.4444,-0.2721
0.0758,0.4544,0.3021,0.3832,0.2555,0.4253,0.3019,0.1349,0.1088,0.1127,0.1097,-0.4466,-0.4433,0.0736,-0.1949,0.1725,-0.4606,0.0816,-0.0898,0.2868,-0.3547,-0.3430,0.4682,0.0219,-0.0694,-0.4274,0.2202,0.4905,-0.0215,0.1965,-0.1225,0.1638,-0.2897,0.2532,0.1895,-0.0501,-0.1468,-0.3797,-0.2523,0.4276,-0.2078,0.3551,0.0101,-0.4562,-0.2400,-0.2633,0.4669,0.0491,0.4415,0.3440,-0.1747,-0.1994,-0.2472,0.3966,-0.4721,0.1929,-0.0641,0.1707,-0.2399,-0.4087,0.2014,0.0655,0.0135,0.4933,0.2809,-0.1036,0.2539,0.1564,-0.1041,0.1983,0.0522,0.2374,-0.4171,-0.3999,-0.3700,-0.1723,0.0228,-0.4896,-0.1807,-0.1161,-0.1564,0.1054,0.2678,-0.0968,-0.0141,0.0878,0.2717,-0.2832,0.1652,-0.0661,0.3283,0.3023,0.3177,0.3742,-0.3544,0.2212,0.2883,-0.3164,0.3957,-0.4450,0.1827,0.4932,-0.1619,-0.4696,0.1633,0.2710,-0.2048,0.2523,0.4697,-0.1883,-0.4459,0.2975,0.1565,-0.1598,-0.0290,0.1365,0.1726,-0.3257,-0.3473,-0.1818,0.0196,0.0572,0.4026,0.3475,0.2707,0.3989,-0.2852,0.2803,0.1752,0.0194,-0.3660,-0.0365,0.0125,0.2604,-0.0686,0.4531,0.0458,-0.2033,-0.0824,-0.0154,-0.3117,-0.0683,0.4864,0.4803,0.2708,-0.3186,-0.4138,0.1697,0.1048,-0.1721
-0.0549,0.2462,0.3978,0.0998,-0.1210,-0.4836,0.2255,-0.3291,0.2030,0.2688,-0.0077,0.1365,-0.1118,-0.0863,-0.3472,0.2943,0.1671,0.2011,-0.0987,0.2260,-0.2660,0.4229,-0.0054,0.3964,0.0016,0.4808,0.2226,0.4929,0.5353,0.3078,0.4781,-0.0297,-0.3688,-0.1981,0.4329,-0.1998,-0.2049,-0.2417,0.3042,-0.1794,0.2362,0.0127,0.0689,0.1139,-0.4567,-0.0770,0.2533,0.0649,0.4538,0.2640,-0.2774,-0.3857,0.1695,0.1908,0.1441,-0.0029,0.0622,-0.1227,-0.3294,0.4348,-0.2915,0.4639,0.2343,0.4059,-0.0631,0.4882,0.0767,-0.3668,0.3893,0.1244,0.3612,-0.0658,-0.1781,0.3300,0.1323,0.2002,0.3435,0.5227,0.1283,-0.1375,-0.3731,0.5377,-0.3596,0.5128,0.2892,0.5184,0.4756,-0.1119,-0.2892,0.0417,-0.1661,0.4000,0.1351,0.3030,-0.0502,0.1871,-0.4286,-0.0449,0.2110,-0.1305,0.0378,-0.4825,0.1926,-0.2468,-0.3664,-0.1036,0.4204,0.3748,-0.0976,0.1567,0.5179,0.0263,-0.3352,0.3604,-0.0780,-0.2688,-0.3279,0.5812,0.4384,-0.3140,0.1533,-0.3909,0.3758,-0.2741,-0.0855,-0.0921,0.3958,-0.1223,0.4540,-0.4286,0.2463,0.1506,0.2570,-0.0498,-0.1025,-0.2909,0.0281,-0.2955,0.2256,0.3035,0.3999,0.0709,-0.3780,0.2765,0.2943,-0.1164,0.3906,-0.0750,-0.2132,0.2872
